{"learner":{"attributes":{"scikit_learn":"{\"_estimator_type\": \"regressor\"}"},"feature_names":["Rain Fall (mm)","Fertilizer","Temperatue","Nitrogen (N)","Phosphorus (P)","Potassium (K)"],"feature_types":["float","float","float","float","float","float"],"gradient_booster":{"model":{"gbtree_model_param":{"num_parallel_tree":"1","num_trees":"300"},"iteration_indptr":[0,1,2,3,4,5,6,7,8,9,10,11,12,13,14,15,16,17,18,19,20,21,22,23,24,25,26,27,28,29,30,31,32,33,34,35,36,37,38,39,40,41,42,43,44,45,46,47,48,49,50,51,52,53,54,55,56,57,58,59,60,61,62,63,64,65,66,67,68,69,70,71,72,73,74,75,76,77,78,79,80,81,82,83,84,85,86,87,88,89,90,91,92,93,94,95,96,97,98,99,100,101,102,103,104,105,106,107,108,109,110,111,112,113,114,115,116,117,118,119,120,121,122,123,124,125,126,127,128,129,130,131,132,133,134,135,136,137,138,139,140,141,142,143,144,145,146,147,148,149,150,151,152,153,154,155,156,157,158,159,160,161,162,163,164,165,166,167,168,169,170,171,172,173,174,175,176,177,178,179,180,181,182,183,184,185,186,187,188,189,190,191,192,193,194,195,196,197,198,199,200,201,202,203,204,205,206,207,208,209,210,211,212,213,214,215,216,217,218,219,220,221,222,223,224,225,226,227,228,229,230,231,232,233,234,235,236,237,238,239,240,241,242,243,244,245,246,247,248,249,250,251,252,253,254,255,256,257,258,259,260,261,262,263,264,265,266,267,268,269,270,271,272,273,274,275,276,277,278,279,280,281,282,283,284,285,286,287,288,289,290,291,292,293,294,295,296,297,298,299,300],"tree_info":[0,0,0,0,0,0,0,0,0,0,0,0,0,0,0,0,0,0,0,0,0,0,0,0,0,0,0,0,0,0,0,0,0,0,0,0,0,0,0,0,0,0,0,0,0,0,0,0,0,0,0,0,0,0,0,0,0,0,0,0,0,0,0,0,0,0,0,0,0,0,0,0,0,0,0,0,0,0,0,0,0,0,0,0,0,0,0,0,0,0,0,0,0,0,0,0,0,0,0,0,0,0,0,0,0,0,0,0,0,0,0,0,0,0,0,0,0,0,0,0,0,0,0,0,0,0,0,0,0,0,0,0,0,0,0,0,0,0,0,0,0,0,0,0,0,0,0,0,0,0,0,0,0,0,0,0,0,0,0,0,0,0,0,0,0,0,0,0,0,0,0,0,0,0,0,0,0,0,0,0,0,0,0,0,0,0,0,0,0,0,0,0,0,0,0,0,0,0,0,0,0,0,0,0,0,0,0,0,0,0,0,0,0,0,0,0,0,0,0,0,0,0,0,0,0,0,0,0,0,0,0,0,0,0,0,0,0,0,0,0,0,0,0,0,0,0,0,0,0,0,0,0,0,0,0,0,0,0,0,0,0,0,0,0,0,0,0,0,0,0,0,0,0,0,0,0,0,0,0,0,0,0,0,0,0,0,0,0,0,0,0,0,0,0,0,0,0,0,0,0],"trees":[{"base_weights":[2.7460596E-2,1.5403519E0,-1.6696435E0,2.0934122E-2,4.8222318E-1,-1.982947E-2,-6.1383986E-1,2.013404E-3,9.475441E-3,-7.7048843E-3,-4.3713252E-4],"categories":[],"categories_nodes":[],"categories_segments":[],"categories_sizes":[],"default_left":[0,0,0,0,0,0,0,0,0,0,0],"id":0,"left_children":[1,3,5,-1,7,-1,9,-1,-1,-1,-1],"loss_changes":[1.7973169E2,2.0643242E1,9.698761E0,0E0,1.6390305E0,0E0,7.701056E-1,0E0,0E0,0E0,0E0],"parents":[2147483647,0,0,1,1,2,2,4,4,6,6],"right_children":[2,4,6,-1,8,-1,10,-1,-1,-1,-1],"split_conditions":[3.6E1,2.9E1,1.8E1,2.0934122E-2,2.2E1,-1.982947E-2,1.8060606E1,2.013404E-3,9.475441E-3,-7.7048843E-3,-4.3713252E-4],"split_indices":[2,2,5,0,4,0,5,0,0,0,0],"split_type":[0,0,0,0,0,0,0,0,0,0,0],"sum_hessian":[6.8E1,3.6E1,3.2E1,2.3E1,1.3E1,2.4E1,8E0,9E0,4E0,6E0,2E0],"tree_param":{"num_deleted":"0","num_feature":"6","num_nodes":"11","size_leaf_vector":"1"}},{"base_weights":[4.6109397E-2,-1.5938504E0,1.548125E0,-1.9500842E-2,-5.79504E-1,1.9609039E-3,1.9274173E-2,1.3803768E-3,-9.067415E-3],"categories":[],"categories_nodes":[],"categories_segments":[],"categories_sizes":[],"default_left":[0,0,0,0,0,0,0,0,0],"id":1,"left_children":[1,3,5,-1,7,-1,-1,-1,-1],"loss_changes":[1.6996815E2,1.0794289E1,1.8083443E1,0E0,2.4732301E0,0E0,0E0,0E0,0E0],"parents":[2147483647,0,0,1,1,2,2,4,4],"right_children":[2,4,6,-1,8,-1,-1,-1,-1],"split_conditions":[5E2,1.8E1,1.175E3,-1.9500842E-2,2E1,1.9609039E-3,1.9274173E-2,1.3803768E-3,-9.067415E-3],"split_indices":[0,5,0,0,4,0,0,0,0],"split_type":[0,0,0,0,0,0,0,0,0],"sum_hessian":[6.7E1,3.2E1,3.5E1,2.3E1,9E0,8E0,2.7E1,3E0,6E0],"tree_param":{"num_deleted":"0","num_feature":"6","num_nodes":"9","size_leaf_vector":"1"}},{"base_weights":[-4.8504084E-2,-1.6275492E0,1.6849165E0,-1.969712E0,-2.6930594E-1,3.1846264E-1,2.0001268E0,-2.2608928E-2,-1.2486155E-2,-8.993988E-3,-5.0807133E-4,1.760408E-3,5.864968E-3,1.1214537E-2,2.1140907E-2],"categories":[],"categories_nodes":[],"categories_segments":[],"categories_sizes":[],"default_left":[0,0,0,0,0,0,0,0,0,0,0,0,0,0,0],"id":2,"left_children":[1,3,5,7,9,11,13,-1,-1,-1,-1,-1,-1,-1,-1],"loss_changes":[1.7791983E2,1.5270714E1,1.271537E1,2.8461914E0,1.0557004E0,1.6397005E-1,1.3256836E-1,0E0,0E0,0E0,0E0,0E0,0E0,0E0,0E0],"parents":[2147483647,0,0,1,1,2,2,3,3,4,4,5,5,6,6],"right_children":[2,4,6,8,10,12,14,-1,-1,-1,-1,-1,-1,-1,-1],"split_conditions":[5E2,1.8E1,1.175E3,2E1,6.4E1,2.2E1,7.4E1,-2.2608928E-2,-1.2486155E-2,-8.993988E-3,-5.0807133E-4,1.760408E-3,5.864968E-3,1.1214537E-2,2.1140907E-2],"split_indices":[0,5,0,4,3,4,3,0,0,0,0,0,0,0,0],"split_type":[0,0,0,0,0,0,0,0,0,0,0,0,0,0,0],"sum_hessian":[6.3E1,3.3E1,3E1,2.6E1,7E0,6E0,2.4E1,1.7E1,9E0,1E0,6E0,5E0,1E0,4E0,2E1],"tree_param":{"num_deleted":"0","num_feature":"6","num_nodes":"15","size_leaf_vector":"1"}},{"base_weights":[2.5465574E-2,1.4441985E0,-1.5856763E0,1.9525912E-2,4.9602336E-1,-1.9442545E0,-4.230896E-1,2.015148E-3,8.458894E-3,-2.1578472E-2,-8.014404E-3,-7.4574584E-3,4.871578E-4],"categories":[],"categories_nodes":[],"categories_segments":[],"categories_sizes":[],"default_left":[0,0,0,0,0,0,0,0,0,0,0,0,0],"id":3,"left_children":[1,3,5,-1,7,9,11,-1,-1,-1,-1,-1,-1],"loss_changes":[1.8058087E2,1.9277382E1,1.4601906E1,0E0,1.4781573E0,5.105324E0,1.5586389E0,0E0,0E0,0E0,0E0,0E0,0E0],"parents":[2147483647,0,0,1,1,2,2,4,4,5,5,6,6],"right_children":[2,4,6,-1,8,10,12,-1,-1,-1,-1,-1,-1],"split_conditions":[3.6E1,2.9E1,1.8E1,1.9525912E-2,7E1,4.55E2,1.8060606E1,2.015148E-3,8.458894E-3,-2.1578472E-2,-8.014404E-3,-7.4574584E-3,4.871578E-4],"split_indices":[2,2,5,0,1,0,5,0,0,0,0,0,0],"split_type":[0,0,0,0,0,0,0,0,0,0,0,0,0],"sum_hessian":[7.7E1,4.1E1,3.6E1,2.6E1,1.5E1,2.7E1,9E0,9E0,6E0,2.2E1,5E0,5E0,4E0],"tree_param":{"num_deleted":"0","num_feature":"6","num_nodes":"13","size_leaf_vector":"1"}},{"base_weights":[-1.2084529E-2,-1.4920417E0,1.5481969E0,-1.8687457E0,-3.6327294E-1,1.9044515E-3,1.916182E0,-2.0869808E-2,-1.0350057E-2,1.3663649E-3,-5.6781853E-3,1.1070748E-2,2.0386178E-2],"categories":[],"categories_nodes":[],"categories_segments":[],"categories_sizes":[],"default_left":[0,0,0,0,0,0,0,0,0,0,0,0,0],"id":4,"left_children":[1,3,5,7,9,-1,11,-1,-1,-1,-1,-1,-1],"loss_changes":[1.7549619E2,1.5904388E1,1.8121475E1,3.1165543E0,1.2023818E0,0E0,6.159439E-1,0E0,0E0,0E0,0E0,0E0,0E0],"parents":[2147483647,0,0,1,1,2,2,3,3,4,4,6,6],"right_children":[2,4,6,8,10,-1,12,-1,-1,-1,-1,-1,-1],"split_conditions":[5E2,1.8E1,1.175E3,4.55E2,2E1,1.9044515E-3,7.4E1,-2.0869808E-2,-1.0350057E-2,1.3663649E-3,-5.6781853E-3,1.1070748E-2,2.0386178E-2],"split_indices":[0,5,0,0,4,0,3,0,0,0,0,0,0],"split_type":[0,0,0,0,0,0,0,0,0,0,0,0,0],"sum_hessian":[7.4E1,3.8E1,3.6E1,2.8E1,1E1,8E0,2.8E1,2.1E1,7E0,3E0,7E0,5E0,2.3E1],"tree_param":{"num_deleted":"0","num_feature":"6","num_nodes":"13","size_leaf_vector":"1"}},{"base_weights":[-1.9577194E-2,-1.5632033E0,1.5631291E0,-1.9077247E0,-4.5016992E-1,2.8555354E-1,1.9248266E-2,-2.0955047E-2,-1.2158732E-2,1.3561153E-3,-6.867894E-3,1.8875228E-3,5.7838247E-3],"categories":[],"categories_nodes":[],"categories_segments":[],"categories_sizes":[],"default_left":[0,0,0,0,0,0,0,0,0,0,0,0,0],"id":5,"left_children":[1,3,5,7,9,11,-1,-1,-1,-1,-1,-1,-1],"loss_changes":[1.9789201E2,1.486322E1,1.7934196E1,1.4795303E0,1.6178167E0,1.7429107E-1,0E0,0E0,0E0,0E0,0E0,0E0,0E0],"parents":[2147483647,0,0,1,1,2,2,3,3,4,4,5,5],"right_children":[2,4,6,8,10,12,-1,-1,-1,-1,-1,-1,-1],"split_conditions":[5E2,1.8E1,1.175E3,4.55E2,2E1,2.2E1,1.9248266E-2,-2.0955047E-2,-1.2158732E-2,1.3561153E-3,-6.867894E-3,1.8875228E-3,5.7838247E-3],"split_indices":[0,5,0,0,4,4,0,0,0,0,0,0,0],"split_type":[0,0,0,0,0,0,0,0,0,0,0,0,0],"sum_hessian":[7.9E1,4E1,3.9E1,3E1,1E1,9E0,3E1,2.2E1,8E0,3E0,7E0,8E0,1E0],"tree_param":{"num_deleted":"0","num_feature":"6","num_nodes":"13","size_leaf_vector":"1"}},{"base_weights":[3.949288E-2,-1.558502E0,1.3496555E0,-1.891623E0,-3.226862E-1,1.9367808E-3,1.7415898E-2,-2.1808231E-2,-1.135176E-2,1.3459444E-3,-6.2397346E-3],"categories":[],"categories_nodes":[],"categories_segments":[],"categories_sizes":[],"default_left":[0,0,0,0,0,0,0,0,0,0,0],"id":6,"left_children":[1,3,5,7,9,-1,-1,-1,-1,-1,-1],"loss_changes":[1.4865778E2,1.2563232E1,1.7332314E1,2.9934921E0,1.1861659E0,0E0,0E0,0E0,0E0,0E0,0E0],"parents":[2147483647,0,0,1,1,2,2,3,3,4,4],"right_children":[2,4,6,8,10,-1,-1,-1,-1,-1,-1],"split_conditions":[4.8E2,1.8E1,1.175E3,4.4E2,2E1,1.9367808E-3,1.7415898E-2,-2.1808231E-2,-1.135176E-2,1.3459444E-3,-6.2397346E-3],"split_indices":[0,5,0,0,4,0,0,0,0,0,0],"split_type":[0,0,0,0,0,0,0,0,0,0,0],"sum_hessian":[6.9E1,3.1E1,3.8E1,2.4E1,7E0,1E1,2.8E1,1.6E1,8E0,3E0,4E0],"tree_param":{"num_deleted":"0","num_feature":"6","num_nodes":"11","size_leaf_vector":"1"}},{"base_weights":[-1.0277547E-1,1.3415543E0,-1.5016022E0,1.947114E-3,1.7635074E0,-1.8844191E-2,-5.298555E-1,1.0774242E-2,1.887349E-2,-7.3694014E-3,1.6777753E-4],"categories":[],"categories_nodes":[],"categories_segments":[],"categories_sizes":[],"default_left":[0,0,0,0,0,0,0,0,0,0,0],"id":7,"left_children":[1,3,5,-1,7,-1,9,-1,-1,-1,-1],"loss_changes":[1.353587E2,1.562579E1,1.1649574E1,0E0,5.6991577E-3,0E0,1.2575574E0,0E0,0E0,0E0,0E0],"parents":[2147483647,0,0,1,1,2,2,4,4,6,6],"right_children":[2,4,6,-1,8,-1,10,-1,-1,-1,-1],"split_conditions":[3.6E1,7E1,1.8E1,1.947114E-3,7.5E1,-1.8844191E-2,1.8060606E1,1.0774242E-2,1.887349E-2,-7.3694014E-3,1.6777753E-4],"split_indices":[2,1,5,0,3,0,5,0,0,0,0],"split_type":[0,0,0,0,0,0,0,0,0,0,0],"sum_hessian":[6.5E1,3.2E1,3.3E1,9E0,2.3E1,2.3E1,1E1,5E0,1.8E1,7E0,3E0],"tree_param":{"num_deleted":"0","num_feature":"6","num_nodes":"11","size_leaf_vector":"1"}},{"base_weights":[-4.9009986E-2,-1.5402918E0,1.2823768E0,-1.9089887E0,-5.0139016E-1,2.722936E-1,1.6463967E-2,-2.118307E-2,-1.2255636E-2,1.1759535E-3,-6.7083593E-3,1.8569604E-3,5.691347E-3],"categories":[],"categories_nodes":[],"categories_segments":[],"categories_sizes":[],"default_left":[0,0,0,0,0,0,0,0,0,0,0,0,0],"id":8,"left_children":[1,3,5,7,9,11,-1,-1,-1,-1,-1,-1,-1],"loss_changes":[1.3897287E2,1.16831665E1,1.3156242E1,8.3716583E-1,1.1277323E0,1.7707688E-1,0E0,0E0,0E0,0E0,0E0,0E0,0E0],"parents":[2147483647,0,0,1,1,2,2,3,3,4,4,5,5],"right_children":[2,4,6,8,10,12,-1,-1,-1,-1,-1,-1,-1],"split_conditions":[5E2,1.8E1,1.175E3,2E1,2E1,2.2E1,1.6463967E-2,-2.118307E-2,-1.2255636E-2,1.1759535E-3,-6.7083593E-3,1.8569604E-3,5.691347E-3],"split_indices":[0,5,0,4,4,4,0,0,0,0,0,0,0],"split_type":[0,0,0,0,0,0,0,0,0,0,0,0,0],"sum_hessian":[6.8E1,3.2E1,3.6E1,2.3E1,9E0,1E1,2.6E1,1.6E1,7E0,2E0,7E0,9E0,1E0],"tree_param":{"num_deleted":"0","num_feature":"6","num_nodes":"13","size_leaf_vector":"1"}},{"base_weights":[1.2485016E-1,1.4335563E0,-1.4954588E0,2.6582608E-1,1.8393371E-2,-1.7557843E0,-4.299283E-1,1.8703045E-3,5.662889E-3,-1.9788247E-2,-9.787104E-3,-9.996547E-3,-7.3410355E-4],"categories":[],"categories_nodes":[],"categories_segments":[],"categories_sizes":[],"default_left":[0,0,0,0,0,0,0,0,0,0,0,0,0],"id":9,"left_children":[1,3,5,7,-1,9,11,-1,-1,-1,-1,-1,-1],"loss_changes":[1.6118195E2,1.9412437E1,8.676216E0,1.7818862E-1,0E0,2.7429123E0,1.5515567E0,0E0,0E0,0E0,0E0,0E0,0E0],"parents":[2147483647,0,0,1,1,2,2,3,3,5,5,6,6],"right_children":[2,4,6,8,-1,10,12,-1,-1,-1,-1,-1,-1],"split_conditions":[3.6E1,1.175E3,1.8E1,2.2E1,1.8393371E-2,4.55E2,6.4E1,1.8703045E-3,5.662889E-3,-1.9788247E-2,-9.787104E-3,-9.996547E-3,-7.3410355E-4],"split_indices":[2,0,5,4,0,0,3,0,0,0,0,0,0],"split_type":[0,0,0,0,0,0,0,0,0,0,0,0,0],"sum_hessian":[7.4E1,4.1E1,3.3E1,1.1E1,3E1,2.6E1,7E0,1E1,1E0,1.9E1,7E0,2E0,5E0],"tree_param":{"num_deleted":"0","num_feature":"6","num_nodes":"13","size_leaf_vector":"1"}},{"base_weights":[3.4333646E-2,-1.4652065E0,1.3587102E0,-1.8154963E0,-3.0284518E-1,2.6034626E-1,1.775485E0,-1.9957852E-2,-1.0927651E-2,1.3203216E-3,-5.0808294E-3,1.8813221E-3,5.6345747E-3,1.8797712E-2,1.0276636E-2],"categories":[],"categories_nodes":[],"categories_segments":[],"categories_sizes":[],"default_left":[0,0,0,0,0,0,0,0,0,0,0,0,0,0,0],"id":10,"left_children":[1,3,5,7,9,11,13,-1,-1,-1,-1,-1,-1,-1,-1],"loss_changes":[1.6086725E2,1.4922394E1,1.9221886E1,1.597786E0,9.5961577E-1,1.7855114E-1,4.8583984E-1,0E0,0E0,0E0,0E0,0E0,0E0,0E0,0E0],"parents":[2147483647,0,0,1,1,2,2,3,3,4,4,5,5,6,6],"right_children":[2,4,6,8,10,12,14,-1,-1,-1,-1,-1,-1,-1,-1],"split_conditions":[5E2,1.8E1,1.175E3,4.55E2,2E1,2.2E1,2.9E1,-1.9957852E-2,-1.0927651E-2,1.3203216E-3,-5.0808294E-3,1.8813221E-3,5.6345747E-3,1.8797712E-2,1.0276636E-2],"split_indices":[0,5,0,0,4,4,2,0,0,0,0,0,0,0,0],"split_type":[0,0,0,0,0,0,0,0,0,0,0,0,0,0,0],"sum_hessian":[7.9E1,3.7E1,4.2E1,2.8E1,9E0,1.2E1,3E1,2.1E1,7E0,3E0,6E0,1.1E1,1E0,2.5E1,5E0],"tree_param":{"num_deleted":"0","num_feature":"6","num_nodes":"15","size_leaf_vector":"1"}},{"base_weights":[6.494739E-2,-1.5361404E0,1.3769951E0,-1.7707883E0,-6.1084807E-1,2.716468E-1,1.6995447E-2,-2.0609578E-2,-1.1294382E-2,1.1555289E-3,-8.722405E-3,1.7724301E-3,5.606403E-3],"categories":[],"categories_nodes":[],"categories_segments":[],"categories_sizes":[],"default_left":[0,0,0,0,0,0,0,0,0,0,0,0,0],"id":11,"left_children":[1,3,5,7,9,11,-1,-1,-1,-1,-1,-1,-1],"loss_changes":[1.491645E2,5.866089E0,1.3442986E1,2.3247833E0,1.6197956E0,1.7345124E-1,0E0,0E0,0E0,0E0,0E0,0E0,0E0],"parents":[2147483647,0,0,1,1,2,2,3,3,4,4,5,5],"right_children":[2,4,6,8,10,12,-1,-1,-1,-1,-1,-1,-1],"split_conditions":[5E2,1.8E1,1.175E3,2E1,2E1,2.2E1,1.6995447E-2,-2.0609578E-2,-1.1294382E-2,1.1555289E-3,-8.722405E-3,1.7724301E-3,5.606403E-3],"split_indices":[0,5,0,4,4,4,0,0,0,0,0,0,0],"split_type":[0,0,0,0,0,0,0,0,0,0,0,0,0],"sum_hessian":[6.9E1,3.1E1,3.8E1,2.4E1,7E0,9E0,2.9E1,1.5E1,9E0,2E0,5E0,8E0,1E0],"tree_param":{"num_deleted":"0","num_feature":"6","num_nodes":"13","size_leaf_vector":"1"}},{"base_weights":[-3.9220355E-2,-1.3537567E0,1.3537952E0,-1.6944808E0,-4.2534006E-1,1.7931318E-3,1.7694362E0,-1.879433E-2,-1.1363008E-2,1.3017535E-3,-6.499302E-3,1.0037013E-2,1.9106848E-2],"categories":[],"categories_nodes":[],"categories_segments":[],"categories_sizes":[],"default_left":[0,0,0,0,0,0,0,0,0,0,0,0,0],"id":12,"left_children":[1,3,5,7,9,-1,11,-1,-1,-1,-1,-1,-1],"loss_changes":[1.2818341E2,1.0667297E1,1.6280254E1,5.4854584E-1,1.4570012E0,0E0,7.862091E-1,0E0,0E0,0E0,0E0,0E0,0E0],"parents":[2147483647,0,0,1,1,2,2,3,3,4,4,6,6],"right_children":[2,4,6,8,10,-1,12,-1,-1,-1,-1,-1,-1],"split_conditions":[5E2,1.8E1,1.175E3,4.55E2,2E1,1.7931318E-3,7.5E1,-1.879433E-2,-1.1363008E-2,1.3017535E-3,-6.499302E-3,1.0037013E-2,1.9106848E-2],"split_indices":[0,5,0,0,4,0,1,0,0,0,0,0,0],"split_type":[0,0,0,0,0,0,0,0,0,0,0,0,0],"sum_hessian":[6.8E1,3.5E1,3.3E1,2.5E1,1E1,9E0,2.4E1,1.7E1,8E0,3E0,7E0,5E0,1.9E1],"tree_param":{"num_deleted":"0","num_feature":"6","num_nodes":"13","size_leaf_vector":"1"}},{"base_weights":[-3.0525584E-2,-1.4495915E0,1.312659E0,-1.76661E0,-4.8038417E-1,1.9216936E-2,3.9319545E-1,-1.9732513E-2,-1.1570373E-2,-6.991809E-3,2.2606134E-4,1.8313876E-3,8.186923E-3],"categories":[],"categories_nodes":[],"categories_segments":[],"categories_sizes":[],"default_left":[0,0,0,0,0,0,0,0,0,0,0,0,0],"id":13,"left_children":[1,3,5,7,9,-1,11,-1,-1,-1,-1,-1,-1],"loss_changes":[1.3723361E2,9.905327E0,1.996384E1,9.919205E-1,1.116332E0,0E0,1.2801216E0,0E0,0E0,0E0,0E0,0E0,0E0],"parents":[2147483647,0,0,1,1,2,2,3,3,4,4,6,6],"right_children":[2,4,6,8,10,-1,12,-1,-1,-1,-1,-1,-1],"split_conditions":[5E2,1.8E1,2.9E1,2E1,1.8060606E1,1.9216936E-2,2.2E1,-1.9732513E-2,-1.1570373E-2,-6.991809E-3,2.2606134E-4,1.8313876E-3,8.186923E-3],"split_indices":[0,5,2,4,5,0,4,0,0,0,0,0,0],"split_type":[0,0,0,0,0,0,0,0,0,0,0,0,0],"sum_hessian":[7E1,3.4E1,3.6E1,2.5E1,9E0,2.1E1,1.5E1,1.7E1,8E0,6E0,3E0,1.1E1,4E0],"tree_param":{"num_deleted":"0","num_feature":"6","num_nodes":"13","size_leaf_vector":"1"}},{"base_weights":[2.0736217E-2,1.2959479E0,-1.3584315E0,1.789972E-2,3.5324287E-1,-1.6913242E0,-4.1783732E-1,1.8638325E-3,6.496855E-3,-1.8914575E-2,-1.2282709E-2,-6.9318824E-3,5.1221467E-4],"categories":[],"categories_nodes":[],"categories_segments":[],"categories_sizes":[],"default_left":[0,0,0,0,0,0,0,0,0,0,0,0,0],"id":14,"left_children":[1,3,5,-1,7,9,11,-1,-1,-1,-1,-1,-1],"loss_changes":[1.35424E2,1.799646E1,1.0878632E1,0E0,6.208739E-1,1.7893219E-1,1.4562198E0,0E0,0E0,0E0,0E0,0E0,0E0],"parents":[2147483647,0,0,1,1,2,2,4,4,5,5,6,6],"right_children":[2,4,6,-1,8,10,12,-1,-1,-1,-1,-1,-1],"split_conditions":[3.6E1,2.9E1,1.8E1,1.789972E-2,7E1,4.4E2,1.8060606E1,1.8638325E-3,6.496855E-3,-1.8914575E-2,-1.2282709E-2,-6.9318824E-3,5.1221467E-4],"split_indices":[2,2,5,0,1,0,5,0,0,0,0,0,0],"split_type":[0,0,0,0,0,0,0,0,0,0,0,0,0],"sum_hessian":[7.5E1,3.9E1,3.6E1,2.5E1,1.4E1,2.6E1,1E1,1E1,4E0,1.6E1,1E1,6E0,4E0],"tree_param":{"num_deleted":"0","num_feature":"6","num_nodes":"13","size_leaf_vector":"1"}},{"base_weights":[2.0010376E-2,1.2822684E0,-1.3830544E0,1.8076411E0,3.8123178E-1,-1.7804115E0,-4.3997273E-1,7.671725E-3,1.8647613E-2,1.7997614E-3,7.879989E-3,-2.1069262E-2,-1.3733694E-2,-6.917164E-3,5.0811766E-4],"categories":[],"categories_nodes":[],"categories_segments":[],"categories_sizes":[],"default_left":[0,0,0,0,0,0,0,0,0,0,0,0,0,0,0],"id":15,"left_children":[1,3,5,7,9,11,13,-1,-1,-1,-1,-1,-1,-1,-1],"loss_changes":[1.3460068E2,1.824607E1,1.2707321E1,5.519867E-2,1.1680062E0,4.29039E-1,1.5177703E0,0E0,0E0,0E0,0E0,0E0,0E0,0E0,0E0],"parents":[2147483647,0,0,1,1,2,2,3,3,4,4,5,5,6,6],"right_children":[2,4,6,8,10,12,14,-1,-1,-1,-1,-1,-1,-1,-1],"split_conditions":[3.6E1,2.9E1,1.8E1,2.1131313E1,1.175E3,6.5E1,1.8060606E1,7.671725E-3,1.8647613E-2,1.7997614E-3,7.879989E-3,-2.1069262E-2,-1.3733694E-2,-6.917164E-3,5.0811766E-4],"split_indices":[2,2,5,4,0,3,5,0,0,0,0,0,0,0,0],"split_type":[0,0,0,0,0,0,0,0,0,0,0,0,0,0,0],"sum_hessian":[7.4E1,3.9E1,3.5E1,2.4E1,1.5E1,2.4E1,1.1E1,2E0,2.2E1,1.1E1,4E0,1.1E1,1.3E1,7E0,4E0],"tree_param":{"num_deleted":"0","num_feature":"6","num_nodes":"15","size_leaf_vector":"1"}},{"base_weights":[-2.4927111E-2,-1.4902357E0,1.2826434E0,-1.7684532E0,-5.5182743E-1,2.6181155E-1,1.6014175E0,-2.062556E-2,-1.0164309E-2,-8.421887E-3,2.1671294E-4,1.6896861E-3,5.486989E-3,1.3173767E-2,2.1468477E-2],"categories":[],"categories_nodes":[],"categories_segments":[],"categories_sizes":[],"default_left":[0,0,0,0,0,0,0,0,0,0,0,0,0,0,0],"id":16,"left_children":[1,3,5,7,9,11,13,-1,-1,-1,-1,-1,-1,-1,-1],"loss_changes":[1.3411505E2,7.6398087E0,1.16210785E1,3.4328537E0,1.5169477E0,1.7364168E-1,1.5096741E0,0E0,0E0,0E0,0E0,0E0,0E0,0E0,0E0],"parents":[2147483647,0,0,1,1,2,2,3,3,4,4,5,5,6,6],"right_children":[2,4,6,8,10,12,14,-1,-1,-1,-1,-1,-1,-1,-1],"split_conditions":[5E2,1.8E1,1.175E3,2E1,1.8060606E1,2.2E1,2.4E1,-2.062556E-2,-1.0164309E-2,-8.421887E-3,2.1671294E-4,1.6896861E-3,5.486989E-3,1.3173767E-2,2.1468477E-2],"split_indices":[0,5,0,4,5,4,4,0,0,0,0,0,0,0,0],"split_type":[0,0,0,0,0,0,0,0,0,0,0,0,0,0,0],"sum_hessian":[6.8E1,3.2E1,3.6E1,2.4E1,8E0,9E0,2.7E1,1.6E1,8E0,5E0,3E0,8E0,1E0,2E1,7E0],"tree_param":{"num_deleted":"0","num_feature":"6","num_nodes":"15","size_leaf_vector":"1"}},{"base_weights":[8.0797985E-2,1.2241676E0,-1.2794783E0,1.8243616E-3,1.5896989E0,-1.6802815E0,-2.296832E-1,1.2171235E-2,1.8753368E-2,-1.8835599E-2,-1.1547864E-2,1.2770748E-3,-4.0109456E-3],"categories":[],"categories_nodes":[],"categories_segments":[],"categories_sizes":[],"default_left":[0,0,0,0,0,0,0,0,0,0,0,0,0],"id":17,"left_children":[1,3,5,-1,7,9,11,-1,-1,-1,-1,-1,-1],"loss_changes":[1.088819E2,1.4179829E1,1.3078426E1,0E0,6.9729614E-1,2.817917E-1,6.63831E-1,0E0,0E0,0E0,0E0,0E0,0E0],"parents":[2147483647,0,0,1,1,2,2,4,4,5,5,6,6],"right_children":[2,4,6,-1,8,10,12,-1,-1,-1,-1,-1,-1],"split_conditions":[3.6E1,7E1,1.8E1,1.8243616E-3,2.3E1,2E1,5.2E1,1.2171235E-2,1.8753368E-2,-1.8835599E-2,-1.1547864E-2,1.2770748E-3,-4.0109456E-3],"split_indices":[2,1,5,0,4,4,1,0,0,0,0,0,0],"split_type":[0,0,0,0,0,0,0,0,0,0,0,0,0],"sum_hessian":[6.8E1,3.7E1,3.1E1,1E1,2.7E1,2.2E1,9E0,1.4E1,1.3E1,1.4E1,8E0,3E0,6E0],"tree_param":{"num_deleted":"0","num_feature":"6","num_nodes":"13","size_leaf_vector":"1"}},{"base_weights":[-5.4571126E-2,1.2399433E0,-1.4236284E0,1.6983738E-3,1.590355E0,-1.748931E0,-3.2568455E-1,1.6427094E-2,6.2395027E-3,-2.0613756E-2,-1.1354724E-2,1.115621E-3,-4.665496E-3],"categories":[],"categories_nodes":[],"categories_segments":[],"categories_sizes":[],"default_left":[0,0,0,0,0,0,0,0,0,0,0,0,0],"id":18,"left_children":[1,3,5,-1,7,9,11,-1,-1,-1,-1,-1,-1],"loss_changes":[1.2405147E2,1.3229088E1,1.1573975E1,0E0,3.4111023E-1,2.6428375E0,6.0638416E-1,0E0,0E0,0E0,0E0,0E0,0E0],"parents":[2147483647,0,0,1,1,2,2,4,4,5,5,6,6],"right_children":[2,4,6,-1,8,10,12,-1,-1,-1,-1,-1,-1],"split_conditions":[3.6E1,1.175E3,1.8E1,1.6983738E-3,2.9E1,2E1,5.2E1,1.6427094E-2,6.2395027E-3,-2.0613756E-2,-1.1354724E-2,1.115621E-3,-4.665496E-3],"split_indices":[2,0,5,0,2,4,1,0,0,0,0,0,0],"split_type":[0,0,0,0,0,0,0,0,0,0,0,0,0],"sum_hessian":[6.8E1,3.5E1,3.3E1,9E0,2.6E1,2.5E1,8E0,2.4E1,2E0,1.5E1,1E1,2E0,6E0],"tree_param":{"num_deleted":"0","num_feature":"6","num_nodes":"13","size_leaf_vector":"1"}},{"base_weights":[-1.3364334E-1,1.1800787E0,-1.3684772E0,2.327124E-1,1.5818592E0,-1.7373337E0,-2.7260265E-1,1.6830873E-3,4.383745E-3,7.135496E-3,1.6764281E-2,-1.8727062E-2,-1.1023644E-2,1.259129E-3,-4.613826E-3],"categories":[],"categories_nodes":[],"categories_segments":[],"categories_sizes":[],"default_left":[0,0,0,0,0,0,0,0,0,0,0,0,0,0,0],"id":19,"left_children":[1,3,5,7,9,11,13,-1,-1,-1,-1,-1,-1,-1,-1],"loss_changes":[1.1030423E2,1.219278E1,1.367411E1,7.1917E-2,6.924362E-1,1.7049408E-1,8.104115E-1,0E0,0E0,0E0,0E0,0E0,0E0,0E0,0E0],"parents":[2147483647,0,0,1,1,2,2,3,3,4,4,5,5,6,6],"right_children":[2,4,6,8,10,12,14,-1,-1,-1,-1,-1,-1,-1,-1],"split_conditions":[3.6E1,1.9E1,1.8E1,1.175E3,7.4E1,2E1,5.2E1,1.6830873E-3,4.383745E-3,7.135496E-3,1.6764281E-2,-1.8727062E-2,-1.1023644E-2,1.259129E-3,-4.613826E-3],"split_indices":[2,5,5,0,3,4,1,0,0,0,0,0,0,0,0],"split_type":[0,0,0,0,0,0,0,0,0,0,0,0,0,0,0],"sum_hessian":[6.6E1,3.2E1,3.4E1,1E1,2.2E1,2.5E1,9E0,9E0,1E0,3E0,1.9E1,1.9E1,6E0,3E0,6E0],"tree_param":{"num_deleted":"0","num_feature":"6","num_nodes":"15","size_leaf_vector":"1"}},{"base_weights":[-1.3518269E-3,1.2232027E0,-1.292062E0,2.4948145E-1,1.5503659E-2,-1.6432688E0,-4.2344204E-1,1.6679382E-3,5.381789E-3,-1.877365E-2,-1.0809783E-2,-6.666658E-3,5.040436E-4],"categories":[],"categories_nodes":[],"categories_segments":[],"categories_sizes":[],"default_left":[0,0,0,0,0,0,0,0,0,0,0,0,0],"id":20,"left_children":[1,3,5,7,-1,9,11,-1,-1,-1,-1,-1,-1],"loss_changes":[1.2012134E2,1.2037277E1,1.0591591E1,1.7282397E-1,0E0,1.3929901E0,1.4166112E0,0E0,0E0,0E0,0E0,0E0,0E0],"parents":[2147483647,0,0,1,1,2,2,3,3,5,5,6,6],"right_children":[2,4,6,8,-1,10,12,-1,-1,-1,-1,-1,-1],"split_conditions":[3.6E1,1.175E3,1.8E1,2.2E1,1.5503659E-2,4.4E2,1.8060606E1,1.6679382E-3,5.381789E-3,-1.877365E-2,-1.0809783E-2,-6.666658E-3,5.040436E-4],"split_indices":[2,0,5,4,0,0,5,0,0,0,0,0,0],"split_type":[0,0,0,0,0,0,0,0,0,0,0,0,0],"sum_hessian":[7.4E1,3.8E1,3.6E1,1E1,2.8E1,2.5E1,1.1E1,9E0,1E0,1.6E1,9E0,7E0,4E0],"tree_param":{"num_deleted":"0","num_feature":"6","num_nodes":"13","size_leaf_vector":"1"}},{"base_weights":[4.744377E-2,1.2802126E0,-1.2954942E0,1.7417803E-3,1.629503E0,-1.6157497E0,-3.653059E-1,9.115284E-3,1.711185E-2,-1.9132124E-2,-1.0632324E-2,-9.4664255E-3,-1.0164141E-3],"categories":[],"categories_nodes":[],"categories_segments":[],"categories_sizes":[],"default_left":[0,0,0,0,0,0,0,0,0,0,0,0,0],"id":21,"left_children":[1,3,5,-1,7,9,11,-1,-1,-1,-1,-1,-1],"loss_changes":[1.17545746E2,1.4010296E1,9.5382805E0,0E0,8.228302E-2,2.074646E0,1.4365603E0,0E0,0E0,0E0,0E0,0E0,0E0],"parents":[2147483647,0,0,1,1,2,2,4,4,5,5,6,6],"right_children":[2,4,6,-1,8,10,12,-1,-1,-1,-1,-1,-1],"split_conditions":[3.6E1,1.15E3,1.8E1,1.7417803E-3,7.4E1,2E1,6.4E1,9.115284E-3,1.711185E-2,-1.9132124E-2,-1.0632324E-2,-9.4664255E-3,-1.0164141E-3],"split_indices":[2,0,5,0,3,4,3,0,0,0,0,0,0],"split_type":[0,0,0,0,0,0,0,0,0,0,0,0,0],"sum_hessian":[6.9E1,3.6E1,3.3E1,9E0,2.7E1,2.4E1,9E0,4E0,2.3E1,1.4E1,1E1,2E0,7E0],"tree_param":{"num_deleted":"0","num_feature":"6","num_nodes":"13","size_leaf_vector":"1"}},{"base_weights":[-2.6670286E-2,-1.3600727E0,1.237255E0,-1.6156698E-2,-5.3395385E-1,2.3622109E-1,1.6901852E0,-6.5783095E-3,-2.5630314E-4,1.6680328E-3,5.3461744E-3,4.5642233E-3,1.7212788E-2],"categories":[],"categories_nodes":[],"categories_segments":[],"categories_sizes":[],"default_left":[0,0,0,0,0,0,0,0,0,0,0,0,0],"id":22,"left_children":[1,3,5,-1,7,9,11,-1,-1,-1,-1,-1,-1],"loss_changes":[1.247112E2,6.7388306E0,1.6829876E1,0E0,6.128361E-1,1.8010634E-1,2.1179199E-1,0E0,0E0,0E0,0E0,0E0,0E0],"parents":[2147483647,0,0,1,1,2,2,4,4,5,5,6,6],"right_children":[2,4,6,-1,8,10,12,-1,-1,-1,-1,-1,-1],"split_conditions":[5E2,1.8E1,1.175E3,-1.6156698E-2,1.8060606E1,2.2E1,7.4E1,-6.5783095E-3,-2.5630314E-4,1.6680328E-3,5.3461744E-3,4.5642233E-3,1.7212788E-2],"split_indices":[0,5,0,0,5,4,3,0,0,0,0,0,0],"split_type":[0,0,0,0,0,0,0,0,0,0,0,0,0],"sum_hessian":[7.2E1,3.5E1,3.7E1,2.6E1,9E0,1.2E1,2.5E1,7E0,2E0,1.1E1,1E0,1E0,2.4E1],"tree_param":{"num_deleted":"0","num_feature":"6","num_nodes":"13","size_leaf_vector":"1"}},{"base_weights":[-6.140981E-2,1.1533291E0,-1.2745328E0,2.3932283E-1,1.5168383E-2,-1.5770397E0,-3.8864848E-1,1.6436229E-3,5.3194426E-3,-1.7948061E-2,-1.0773272E-2,-6.469007E-3,5.0634384E-4],"categories":[],"categories_nodes":[],"categories_segments":[],"categories_sizes":[],"default_left":[0,0,0,0,0,0,0,0,0,0,0,0,0],"id":23,"left_children":[1,3,5,7,-1,9,11,-1,-1,-1,-1,-1,-1],"loss_changes":[1.11992035E2,1.2262474E1,9.570557E0,1.7578906E-1,0E0,1.1133804E0,1.2806591E0,0E0,0E0,0E0,0E0,0E0,0E0],"parents":[2147483647,0,0,1,1,2,2,3,3,5,5,6,6],"right_children":[2,4,6,8,-1,10,12,-1,-1,-1,-1,-1,-1],"split_conditions":[3.6E1,1.175E3,1.8E1,2.2E1,1.5168383E-2,2E1,1.8060606E1,1.6436229E-3,5.3194426E-3,-1.7948061E-2,-1.0773272E-2,-6.469007E-3,5.0634384E-4],"split_indices":[2,0,5,4,0,4,5,0,0,0,0,0,0],"split_type":[0,0,0,0,0,0,0,0,0,0,0,0,0],"sum_hessian":[7.4E1,3.7E1,3.7E1,1.1E1,2.6E1,2.7E1,1E1,1E1,1E0,1.7E1,1E1,6E0,4E0],"tree_param":{"num_deleted":"0","num_feature":"6","num_nodes":"13","size_leaf_vector":"1"}},{"base_weights":[-6.9499485E-2,1.1521499E0,-1.2891632E0,2.2881699E-1,1.6239402E0,-1.5504926E0,-3.6193433E-1,1.6286849E-3,3.943558E-3,9.1680335E-3,1.7694335E-2,-1.812415E-2,-1.0047497E-2,1.134669E-3,-5.139728E-3],"categories":[],"categories_nodes":[],"categories_segments":[],"categories_sizes":[],"default_left":[0,0,0,0,0,0,0,0,0,0,0,0,0,0,0],"id":24,"left_children":[1,3,5,7,9,11,13,-1,-1,-1,-1,-1,-1,-1,-1],"loss_changes":[1.042954E2,1.4875099E1,7.919758E0,7.769328E-2,7.441101E-1,2.038414E0,7.088324E-1,0E0,0E0,0E0,0E0,0E0,0E0,0E0,0E0],"parents":[2147483647,0,0,1,1,2,2,3,3,4,4,5,5,6,6],"right_children":[2,4,6,8,10,12,14,-1,-1,-1,-1,-1,-1,-1,-1],"split_conditions":[3.6E1,2.2E1,1.8E1,1.175E3,7.5E1,4.4E2,5.2E1,1.6286849E-3,3.943558E-3,9.1680335E-3,1.7694335E-2,-1.812415E-2,-1.0047497E-2,1.134669E-3,-5.139728E-3],"split_indices":[2,4,5,0,1,0,1,0,0,0,0,0,0,0,0],"split_type":[0,0,0,0,0,0,0,0,0,0,0,0,0,0,0],"sum_hessian":[6.8E1,3.4E1,3.4E1,1.2E1,2.2E1,2.6E1,8E0,1E1,2E0,5E0,1.7E1,1.6E1,1E1,2E0,6E0],"tree_param":{"num_deleted":"0","num_feature":"6","num_nodes":"15","size_leaf_vector":"1"}},{"base_weights":[7.1332287E-3,1.2171246E0,-1.2722043E0,1.6898937E-3,1.5479898E0,-1.4445171E0,5.057621E-2,9.134345E-3,1.646222E-2,-1.763905E-2,-1.0348467E-2,1.2383318E-3,-1.2122584E-3],"categories":[],"categories_nodes":[],"categories_segments":[],"categories_sizes":[],"default_left":[0,0,0,0,0,0,0,0,0,0,0,0,0],"id":25,"left_children":[1,3,5,-1,7,9,11,-1,-1,-1,-1,-1,-1],"loss_changes":[1.1145552E2,1.2569691E1,8.050674E0,0E0,2.4163055E-1,2.2307892E0,7.794027E-2,0E0,0E0,0E0,0E0,0E0,0E0],"parents":[2147483647,0,0,1,1,2,2,4,4,5,5,6,6],"right_children":[2,4,6,-1,8,10,12,-1,-1,-1,-1,-1,-1],"split_conditions":[3.6E1,7E1,1.8060606E1,1.6898937E-3,7.5E1,4.4E2,5.2E1,9.134345E-3,1.646222E-2,-1.763905E-2,-1.0348467E-2,1.2383318E-3,-1.2122584E-3],"split_indices":[2,1,5,0,3,0,1,0,0,0,0,0,0],"split_type":[0,0,0,0,0,0,0,0,0,0,0,0,0],"sum_hessian":[7E1,3.6E1,3.4E1,9E0,2.7E1,3E1,4E0,5E0,2.2E1,1.5E1,1.5E1,3E0,1E0],"tree_param":{"num_deleted":"0","num_feature":"6","num_nodes":"13","size_leaf_vector":"1"}},{"base_weights":[-7.733416E-2,1.1885849E0,-1.2043071E0,2.5402987E-1,1.4304255E-2,-1.5287244E0,-4.0104365E-1,1.4171028E-3,5.201335E-3,-1.692302E-2,-8.429712E-3,-6.3286293E-3,5.007591E-4],"categories":[],"categories_nodes":[],"categories_segments":[],"categories_sizes":[],"default_left":[0,0,0,0,0,0,0,0,0,0,0,0,0],"id":26,"left_children":[1,3,5,7,-1,9,11,-1,-1,-1,-1,-1,-1],"loss_changes":[9.987072E1,7.0950737E0,9.028843E0,1.6540092E-1,0E0,1.4899559E0,1.2866298E0,0E0,0E0,0E0,0E0,0E0,0E0],"parents":[2147483647,0,0,1,1,2,2,3,3,5,5,6,6],"right_children":[2,4,6,8,-1,10,12,-1,-1,-1,-1,-1,-1],"split_conditions":[3.6E1,1.175E3,1.8E1,2.2E1,1.4304255E-2,4.55E2,1.8060606E1,1.4171028E-3,5.201335E-3,-1.692302E-2,-8.429712E-3,-6.3286293E-3,5.007591E-4],"split_indices":[2,0,5,4,0,0,5,0,0,0,0,0,0],"split_type":[0,0,0,0,0,0,0,0,0,0,0,0,0],"sum_hessian":[6.8E1,3.2E1,3.6E1,7E0,2.5E1,2.5E1,1.1E1,6E0,1E0,1.9E1,6E0,7E0,4E0],"tree_param":{"num_deleted":"0","num_feature":"6","num_nodes":"13","size_leaf_vector":"1"}},{"base_weights":[7.644709E-2,-1.2235763E0,1.3060365E0,-1.504733E0,-4.4778997E-1,2.3524113E-1,1.6302405E-2,-1.7930677E-2,-1.0189201E-2,-6.273254E-3,2.3228406E-4,1.6576725E-3,4.30253E-3],"categories":[],"categories_nodes":[],"categories_segments":[],"categories_sizes":[],"default_left":[0,0,0,0,0,0,0,0,0,0,0,0,0],"id":27,"left_children":[1,3,5,7,9,11,-1,-1,-1,-1,-1,-1,-1],"loss_changes":[1.1828817E2,7.178425E0,1.2808434E1,1.8150063E0,9.4478106E-1,6.4160466E-2,0E0,0E0,0E0,0E0,0E0,0E0,0E0],"parents":[2147483647,0,0,1,1,2,2,3,3,4,4,5,5],"right_children":[2,4,6,8,10,12,-1,-1,-1,-1,-1,-1,-1],"split_conditions":[5E2,1.8E1,7.4E1,4.4E2,1.8060606E1,1.15E3,1.6302405E-2,-1.7930677E-2,-1.0189201E-2,-6.273254E-3,2.3228406E-4,1.6576725E-3,4.30253E-3],"split_indices":[0,5,3,0,5,0,0,0,0,0,0,0,0],"split_type":[0,0,0,0,0,0,0,0,0,0,0,0,0],"sum_hessian":[7.2E1,3.5E1,3.7E1,2.5E1,1E1,9E0,2.8E1,1.4E1,1.1E1,7E0,3E0,8E0,1E0],"tree_param":{"num_deleted":"0","num_feature":"6","num_nodes":"13","size_leaf_vector":"1"}},{"base_weights":[-8.304075E-2,1.1538614E0,-1.3175703E0,2.270747E-1,1.5691772E0,-1.6212003E0,-3.96375E-1,1.5510299E-3,5.0938176E-3,1.1530948E-2,1.8891683E-2,-1.8134728E-2,-1.0565219E-2,-7.016285E-3,4.920425E-4],"categories":[],"categories_nodes":[],"categories_segments":[],"categories_sizes":[],"default_left":[0,0,0,0,0,0,0,0,0,0,0,0,0,0,0],"id":28,"left_children":[1,3,5,7,9,11,13,-1,-1,-1,-1,-1,-1,-1,-1],"loss_changes":[1.0688276E2,1.3115501E1,9.14698E0,1.6481084E-1,1.0170326E0,9.068985E-1,1.3946694E0,0E0,0E0,0E0,0E0,0E0,0E0,0E0,0E0],"parents":[2147483647,0,0,1,1,2,2,3,3,4,4,5,5,6,6],"right_children":[2,4,6,8,10,12,14,-1,-1,-1,-1,-1,-1,-1,-1],"split_conditions":[3.6E1,1.175E3,1.8E1,2.2E1,7.8E1,6.6E1,1.8060606E1,1.5510299E-3,5.0938176E-3,1.1530948E-2,1.8891683E-2,-1.8134728E-2,-1.0565219E-2,-7.016285E-3,4.920425E-4],"split_indices":[2,0,5,4,3,3,5,0,0,0,0,0,0,0,0],"split_type":[0,0,0,0,0,0,0,0,0,0,0,0,0,0,0],"sum_hessian":[6.8E1,3.4E1,3.4E1,1.1E1,2.3E1,2.5E1,9E0,1E1,1E0,1.2E1,1.1E1,1.7E1,8E0,5E0,4E0],"tree_param":{"num_deleted":"0","num_feature":"6","num_nodes":"15","size_leaf_vector":"1"}},{"base_weights":[-1.0626654E-1,1.1212656E0,-1.3310022E0,2.2535801E-1,1.4779185E0,-1.5989138E0,-4.2095843E-1,1.5369329E-3,5.0683497E-3,1.2130692E-2,1.9553017E-2,-1.7738272E-2,-1.0891956E-2,-9.082298E-3,-1.8561184E-3],"categories":[],"categories_nodes":[],"categories_segments":[],"categories_sizes":[],"default_left":[0,0,0,0,0,0,0,0,0,0,0,0,0,0,0],"id":29,"left_children":[1,3,5,7,9,11,13,-1,-1,-1,-1,-1,-1,-1,-1],"loss_changes":[1.1424759E2,1.1809002E1,8.591751E0,1.6416651E-1,1.0418167E0,6.534958E-1,9.781982E-1,0E0,0E0,0E0,0E0,0E0,0E0,0E0,0E0],"parents":[2147483647,0,0,1,1,2,2,3,3,4,4,5,5,6,6],"right_children":[2,4,6,8,10,12,14,-1,-1,-1,-1,-1,-1,-1,-1],"split_conditions":[3.6E1,1.175E3,1.8E1,2.2E1,2.4E1,6.6E1,6.4E1,1.5369329E-3,5.0683497E-3,1.2130692E-2,1.9553017E-2,-1.7738272E-2,-1.0891956E-2,-9.082298E-3,-1.8561184E-3],"split_indices":[2,0,5,4,4,3,3,0,0,0,0,0,0,0,0],"split_type":[0,0,0,0,0,0,0,0,0,0,0,0,0,0,0],"sum_hessian":[7.4E1,3.7E1,3.7E1,1.1E1,2.6E1,2.8E1,9E0,1E1,1E0,1.9E1,7E0,1.9E1,9E0,2E0,7E0],"tree_param":{"num_deleted":"0","num_feature":"6","num_nodes":"15","size_leaf_vector":"1"}},{"base_weights":[-1.3753818E-1,1.0605547E0,-1.2671521E0,2.3203687E-1,1.3384249E0,-1.4283668E0,5.0295256E-2,1.4575195E-3,5.043006E-3,1.1464251E-2,1.9155387E-2,-1.6699107E-2,-1.0271865E-2,1.2302136E-3,-1.2030458E-3],"categories":[],"categories_nodes":[],"categories_segments":[],"categories_sizes":[],"default_left":[0,0,0,0,0,0,0,0,0,0,0,0,0,0,0],"id":30,"left_children":[1,3,5,7,9,11,13,-1,-1,-1,-1,-1,-1,-1,-1],"loss_changes":[9.743403E1,7.7471504E0,7.9303436E0,1.6141975E-1,6.849289E-1,1.4824753E0,7.683534E-2,0E0,0E0,0E0,0E0,0E0,0E0,0E0,0E0],"parents":[2147483647,0,0,1,1,2,2,3,3,4,4,5,5,6,6],"right_children":[2,4,6,8,10,12,14,-1,-1,-1,-1,-1,-1,-1,-1],"split_conditions":[3.6E1,1.175E3,1.8060606E1,2.2E1,8E1,2E1,5.2E1,1.4575195E-3,5.043006E-3,1.1464251E-2,1.9155387E-2,-1.6699107E-2,-1.0271865E-2,1.2302136E-3,-1.2030458E-3],"split_indices":[2,0,5,4,1,4,1,0,0,0,0,0,0,0,0],"split_type":[0,0,0,0,0,0,0,0,0,0,0,0,0,0,0],"sum_hessian":[7E1,3.4E1,3.6E1,9E0,2.5E1,3.2E1,4E0,8E0,1E0,2.1E1,4E0,1.8E1,1.4E1,3E0,1E0],"tree_param":{"num_deleted":"0","num_feature":"6","num_nodes":"15","size_leaf_vector":"1"}},{"base_weights":[-2.7703473E-2,1.0783266E0,-1.2226629E0,1.460768E0,3.4353974E-1,-1.3784095E0,4.979763E-2,1.0842781E-2,1.6645754E-2,1.6140365E-3,5.898433E-3,-1.7067224E-2,-8.706525E-3,1.2209868E-3,-1.1970329E-3],"categories":[],"categories_nodes":[],"categories_segments":[],"categories_sizes":[],"default_left":[0,0,0,0,0,0,0,0,0,0,0,0,0,0,0],"id":31,"left_children":[1,3,5,7,9,11,13,-1,-1,-1,-1,-1,-1,-1,-1],"loss_changes":[1.0176467E2,1.0738686E1,7.4013557E0,1.9015503E-1,5.777086E-1,4.0152435E0,7.589109E-2,0E0,0E0,0E0,0E0,0E0,0E0,0E0,0E0],"parents":[2147483647,0,0,1,1,2,2,3,3,4,4,5,5,6,6],"right_children":[2,4,6,8,10,12,14,-1,-1,-1,-1,-1,-1,-1,-1],"split_conditions":[3.6E1,2.9E1,1.8060606E1,2.3E1,7E1,2E1,5.2E1,1.0842781E-2,1.6645754E-2,1.6140365E-3,5.898433E-3,-1.7067224E-2,-8.706525E-3,1.2209868E-3,-1.1970329E-3],"split_indices":[2,2,5,4,1,4,1,0,0,0,0,0,0,0,0],"split_type":[0,0,0,0,0,0,0,0,0,0,0,0,0,0,0],"sum_hessian":[7.5E1,3.9E1,3.6E1,2.5E1,1.4E1,3.2E1,4E0,1.1E1,1.4E1,9E0,5E0,1.8E1,1.4E1,3E0,1E0],"tree_param":{"num_deleted":"0","num_feature":"6","num_nodes":"15","size_leaf_vector":"1"}},{"base_weights":[-4.758203E-2,-1.3125184E0,1.1844528E0,-1.4899815E0,-3.644589E-1,2.263155E-1,1.4843428E0,-1.7139485E-2,-1.0112019E-2,8.300352E-4,-4.528699E-3,1.4061058E-3,4.9882983E-3,1.5931891E-2,8.19708E-3],"categories":[],"categories_nodes":[],"categories_segments":[],"categories_sizes":[],"default_left":[0,0,0,0,0,0,0,0,0,0,0,0,0,0,0],"id":32,"left_children":[1,3,5,7,9,11,13,-1,-1,-1,-1,-1,-1,-1,-1],"loss_changes":[1.13762695E2,5.5138054E0,1.0295494E1,1.4837799E0,3.1451398E-1,1.634174E-1,7.196579E-1,0E0,0E0,0E0,0E0,0E0,0E0,0E0,0E0],"parents":[2147483647,0,0,1,1,2,2,3,3,4,4,5,5,6,6],"right_children":[2,4,6,8,10,12,14,-1,-1,-1,-1,-1,-1,-1,-1],"split_conditions":[5E2,1.8E1,1.175E3,2E1,5.2E1,2.2E1,2.9E1,-1.7139485E-2,-1.0112019E-2,8.300352E-4,-4.528699E-3,1.4061058E-3,4.9882983E-3,1.5931891E-2,8.19708E-3],"split_indices":[0,5,0,4,1,4,2,0,0,0,0,0,0,0,0],"split_type":[0,0,0,0,0,0,0,0,0,0,0,0,0,0,0],"sum_hessian":[7.1E1,3.5E1,3.6E1,2.9E1,6E0,9E0,2.7E1,1.8E1,1.1E1,1E0,5E0,8E0,1E0,2.2E1,5E0],"tree_param":{"num_deleted":"0","num_feature":"6","num_nodes":"15","size_leaf_vector":"1"}},{"base_weights":[-4.356964E-2,1.1288458E0,-1.2456915E0,3.1431088E-1,1.4792202E0,-1.493058E0,-4.0375957E-1,1.4548711E-3,6.5779258E-3,1.2862564E-2,2.0710092E-2,-1.7556744E-2,-1.1699524E-2,-8.865039E-3,-1.7226052E-3],"categories":[],"categories_nodes":[],"categories_segments":[],"categories_sizes":[],"default_left":[0,0,0,0,0,0,0,0,0,0,0,0,0,0,0],"id":33,"left_children":[1,3,5,7,9,11,13,-1,-1,-1,-1,-1,-1,-1,-1],"loss_changes":[1.0851955E2,1.06653595E1,7.311264E0,6.581421E-1,4.193802E-1,4.0667725E-1,9.6483886E-1,0E0,0E0,0E0,0E0,0E0,0E0,0E0,0E0],"parents":[2147483647,0,0,1,1,2,2,3,3,4,4,5,5,6,6],"right_children":[2,4,6,8,10,12,14,-1,-1,-1,-1,-1,-1,-1,-1],"split_conditions":[3.6E1,2.2E1,1.8E1,1.175E3,8E1,6.5E1,6.4E1,1.4548711E-3,6.5779258E-3,1.2862564E-2,2.0710092E-2,-1.7556744E-2,-1.1699524E-2,-8.865039E-3,-1.7226052E-3],"split_indices":[2,4,5,0,3,3,3,0,0,0,0,0,0,0,0],"split_type":[0,0,0,0,0,0,0,0,0,0,0,0,0,0,0],"sum_hessian":[7.5E1,3.8E1,3.7E1,1.2E1,2.6E1,2.8E1,9E0,9E0,3E0,2.2E1,4E0,1.3E1,1.5E1,2E0,7E0],"tree_param":{"num_deleted":"0","num_feature":"6","num_nodes":"15","size_leaf_vector":"1"}},{"base_weights":[1.0223992E-2,1.0498916E0,-1.0603228E0,2.6928303E-1,1.3513637E0,-1.3738525E0,-3.7103048E-1,1.406625E-3,5.653836E-3,1.6401941E-2,1.0072687E-2,-1.6047297E-2,-6.1688623E-3,-5.8840523E-3,5.0975225E-4],"categories":[],"categories_nodes":[],"categories_segments":[],"categories_sizes":[],"default_left":[0,0,0,0,0,0,0,0,0,0,0,0,0,0,0],"id":34,"left_children":[1,3,5,7,9,11,13,-1,-1,-1,-1,-1,-1,-1,-1],"loss_changes":[7.679808E1,7.8727074E0,6.8381233E0,3.3940232E-1,8.325119E-1,3.029686E0,1.1307946E0,0E0,0E0,0E0,0E0,0E0,0E0,0E0,0E0],"parents":[2147483647,0,0,1,1,2,2,3,3,4,4,5,5,6,6],"right_children":[2,4,6,8,10,12,14,-1,-1,-1,-1,-1,-1,-1,-1],"split_conditions":[3.6E1,1.9E1,1.8E1,2.2E1,2.8E1,4.55E2,1.8060606E1,1.406625E-3,5.653836E-3,1.6401941E-2,1.0072687E-2,-1.6047297E-2,-6.1688623E-3,-5.8840523E-3,5.0975225E-4],"split_indices":[2,5,5,4,2,0,5,0,0,0,0,0,0,0,0],"split_type":[0,0,0,0,0,0,0,0,0,0,0,0,0,0,0],"sum_hessian":[6.7E1,3.4E1,3.3E1,1E1,2.4E1,2.2E1,1.1E1,8E0,2E0,1.1E1,1.3E1,1.6E1,6E0,7E0,4E0],"tree_param":{"num_deleted":"0","num_feature":"6","num_nodes":"15","size_leaf_vector":"1"}},{"base_weights":[-2.285941E-2,1.0832094E0,-1.2258502E0,2.1847898E-1,1.3953881E-2,-1.3601358E0,1.2132596E-3,1.4291134E-3,4.870777E-3,-1.5865287E-2,-1.0128815E-2],"categories":[],"categories_nodes":[],"categories_segments":[],"categories_sizes":[],"default_left":[0,0,0,0,0,0,0,0,0,0,0],"id":35,"left_children":[1,3,5,7,-1,9,-1,-1,-1,-1,-1],"loss_changes":[9.446919E1,9.683304E0,6.315838E0,1.5366215E-1,0E0,8.301277E-1,0E0,0E0,0E0,0E0,0E0],"parents":[2147483647,0,0,1,1,2,2,3,3,5,5],"right_children":[2,4,6,8,-1,10,-1,-1,-1,-1,-1],"split_conditions":[3.6E1,1.175E3,1.8060606E1,2.2E1,1.3953881E-2,2E1,1.2132596E-3,1.4291134E-3,4.870777E-3,-1.5865287E-2,-1.0128815E-2],"split_indices":[2,0,5,4,0,4,0,0,0,0,0],"split_type":[0,0,0,0,0,0,0,0,0,0,0],"sum_hessian":[6.9E1,3.6E1,3.3E1,1E1,2.6E1,3E1,3E0,9E0,1E0,1.6E1,1.4E1],"tree_param":{"num_deleted":"0","num_feature":"6","num_nodes":"11","size_leaf_vector":"1"}},{"base_weights":[4.2572904E-2,-1.2886366E0,1.1274393E0,-1.6678505E-2,-8.288828E-1,2.5707206E-1,1.4725121E0,-1.2479327E-2,-5.852051E-3,1.4188451E-3,5.553398E-3,5.855472E-3,1.5589848E-2],"categories":[],"categories_nodes":[],"categories_segments":[],"categories_sizes":[],"default_left":[0,0,0,0,0,0,0,0,0,0,0,0,0],"id":36,"left_children":[1,3,5,-1,7,9,11,-1,-1,-1,-1,-1,-1],"loss_changes":[9.9657394E1,4.0222397E0,1.1034382E1,0E0,9.0351295E-1,3.3348662E-1,1.158001E0,0E0,0E0,0E0,0E0,0E0,0E0],"parents":[2147483647,0,0,1,1,2,2,4,4,5,5,6,6],"right_children":[2,4,6,-1,8,10,12,-1,-1,-1,-1,-1,-1],"split_conditions":[5E2,4.4E2,1.9E1,-1.6678505E-2,6.4E1,2.2E1,7.4E1,-1.2479327E-2,-5.852051E-3,1.4188451E-3,5.553398E-3,5.855472E-3,1.5589848E-2],"split_indices":[0,0,5,0,3,4,3,0,0,0,0,0,0],"split_type":[0,0,0,0,0,0,0,0,0,0,0,0,0],"sum_hessian":[6.7E1,3E1,3.7E1,1.5E1,1.5E1,1.1E1,2.6E1,4E0,1.1E1,9E0,2E0,3E0,2.3E1],"tree_param":{"num_deleted":"0","num_feature":"6","num_nodes":"13","size_leaf_vector":"1"}},{"base_weights":[-4.9539633E-2,1.2270575E0,-1.1904544E0,2.801483E-1,1.5076392E0,-1.4712384E0,-3.6750838E-1,1.4771516E-3,4.9577616E-3,1.1247486E-2,1.7134422E-2,-1.669097E-2,-1.0137206E-2,1.2458491E-3,-5.6761643E-3],"categories":[],"categories_nodes":[],"categories_segments":[],"categories_sizes":[],"default_left":[0,0,0,0,0,0,0,0,0,0,0,0,0,0,0],"id":37,"left_children":[1,3,5,7,9,11,13,-1,-1,-1,-1,-1,-1,-1,-1],"loss_changes":[1.0487144E2,8.610943E0,8.239971E0,1.8377274E-1,1.21608734E-1,8.426666E-1,1.1539067E0,0E0,0E0,0E0,0E0,0E0,0E0,0E0,0E0],"parents":[2147483647,0,0,1,1,2,2,3,3,4,4,5,5,6,6],"right_children":[2,4,6,8,10,12,14,-1,-1,-1,-1,-1,-1,-1,-1],"split_conditions":[3.6E1,7.4E1,1.8E1,1.15E3,2.3E1,2E1,5.2E1,1.4771516E-3,4.9577616E-3,1.1247486E-2,1.7134422E-2,-1.669097E-2,-1.0137206E-2,1.2458491E-3,-5.6761643E-3],"split_indices":[2,3,5,0,4,4,1,0,0,0,0,0,0,0,0],"split_type":[0,0,0,0,0,0,0,0,0,0,0,0,0,0,0],"sum_hessian":[7E1,3.3E1,3.7E1,8E0,2.5E1,2.7E1,1E1,6E0,2E0,1.1E1,1.4E1,1.7E1,1E1,3E0,7E0],"tree_param":{"num_deleted":"0","num_feature":"6","num_nodes":"15","size_leaf_vector":"1"}},{"base_weights":[7.0779234E-2,-1.1910367E0,1.169009E0,-1.4708817E-2,-2.5025803E-1,1.3571405E-1,1.4744737E0,1.1679744E-3,-3.7181636E-3,1.4830653E-3,1.1190891E-4,7.845829E-3,1.5504344E-2],"categories":[],"categories_nodes":[],"categories_segments":[],"categories_sizes":[],"default_left":[0,0,0,0,0,0,0,0,0,0,0,0,0],"id":38,"left_children":[1,3,5,-1,7,9,11,-1,-1,-1,-1,-1,-1],"loss_changes":[1.0116733E2,8.583157E0,1.2109665E1,0E0,4.4499516E-1,1.402086E-2,3.5569E-1,0E0,0E0,0E0,0E0,0E0,0E0],"parents":[2147483647,0,0,1,1,2,2,4,4,5,5,6,6],"right_children":[2,4,6,-1,8,10,12,-1,-1,-1,-1,-1,-1],"split_conditions":[5E2,1.8E1,1.175E3,-1.4708817E-2,5.2E1,1.15E3,7.4E1,1.1679744E-3,-3.7181636E-3,1.4830653E-3,1.1190891E-4,7.845829E-3,1.5504344E-2],"split_indices":[0,5,0,0,1,0,3,0,0,0,0,0,0],"split_type":[0,0,0,0,0,0,0,0,0,0,0,0,0],"sum_hessian":[7.1E1,3.3E1,3.8E1,2.5E1,8E0,9E0,2.9E1,2E0,6E0,8E0,1E0,4E0,2.5E1],"tree_param":{"num_deleted":"0","num_feature":"6","num_nodes":"13","size_leaf_vector":"1"}},{"base_weights":[1.0406936E-3,1.086749E0,-1.1485634E0,3.4621906E-1,1.39873335E-2,-1.5063147E-2,-7.46878E-1,1.4875518E-3,5.9291744E-3,-8.355061E-3,-2.5235812E-4],"categories":[],"categories_nodes":[],"categories_segments":[],"categories_sizes":[],"default_left":[0,0,0,0,0,0,0,0,0,0,0],"id":39,"left_children":[1,3,5,7,-1,-1,9,-1,-1,-1,-1],"loss_changes":[8.736949E1,7.832947E0,3.7608833E0,4.9636865E-1,0E0,0E0,1.1301546E0,0E0,0E0,0E0,0E0],"parents":[2147483647,0,0,1,1,2,2,3,3,6,6],"right_children":[2,4,6,8,-1,-1,10,-1,-1,-1,-1],"split_conditions":[3.6E1,7.4E1,4.4E2,1.15E3,1.39873335E-2,-1.5063147E-2,1.8060606E1,1.4875518E-3,5.9291744E-3,-8.355061E-3,-2.5235812E-4],"split_indices":[2,3,0,0,0,0,5,0,0,0,0],"split_type":[0,0,0,0,0,0,0,0,0,0,0],"sum_hessian":[6.8E1,3.5E1,3.3E1,1.1E1,2.4E1,1.6E1,1.7E1,7E0,4E0,1.5E1,2E0],"tree_param":{"num_deleted":"0","num_feature":"6","num_nodes":"11","size_leaf_vector":"1"}},{"base_weights":[1.3909507E-1,-1.151123E0,1.0797646E0,-1.5398011E0,-6.597917E-1,1.492844E0,2.6423723E-1,-1.702982E-2,-6.245124E-3,-8.747195E-3,-3.623899E-3,1.0992465E-2,1.734439E-2,1.3793595E-3,5.7708165E-3],"categories":[],"categories_nodes":[],"categories_segments":[],"categories_sizes":[],"default_left":[0,0,0,0,0,0,0,0,0,0,0,0,0,0,0],"id":40,"left_children":[1,3,5,7,9,11,13,-1,-1,-1,-1,-1,-1,-1,-1],"loss_changes":[8.619975E1,4.713146E0,1.3417519E1,1.3261871E0,6.41809E-1,6.6088104E-1,5.130894E-1,0E0,0E0,0E0,0E0,0E0,0E0,0E0,0E0],"parents":[2147483647,0,0,1,1,2,2,3,3,4,4,5,5,6,6],"right_children":[2,4,6,8,10,12,14,-1,-1,-1,-1,-1,-1,-1,-1],"split_conditions":[5E2,2E1,2.9E1,6.6E1,1.7E1,2.3E1,2.2E1,-1.702982E-2,-6.245124E-3,-8.747195E-3,-3.623899E-3,1.0992465E-2,1.734439E-2,1.3793595E-3,5.7708165E-3],"split_indices":[0,4,2,3,5,4,4,0,0,0,0,0,0,0,0],"split_type":[0,0,0,0,0,0,0,0,0,0,0,0,0,0,0],"sum_hessian":[6.9E1,2.9E1,4E1,1.5E1,1.4E1,2.6E1,1.4E1,1.2E1,3E0,7E0,7E0,1.2E1,1.4E1,1.1E1,3E0],"tree_param":{"num_deleted":"0","num_feature":"6","num_nodes":"15","size_leaf_vector":"1"}},{"base_weights":[-1.1169875E-1,9.4042593E-1,-1.2879689E0,1.3396826E-2,3.326714E-1,-1.4709642E0,-5.322379E-1,1.5090551E-3,5.448125E-3,-1.6241647E-2,-9.232425E-3,-7.091465E-3,-1.0080337E-5],"categories":[],"categories_nodes":[],"categories_segments":[],"categories_sizes":[],"default_left":[0,0,0,0,0,0,0,0,0,0,0,0,0],"id":41,"left_children":[1,3,5,-1,7,9,11,-1,-1,-1,-1,-1,-1],"loss_changes":[8.660446E1,8.532379E0,3.7808418E0,0E0,5.347451E-1,6.8219376E-1,7.511182E-1,0E0,0E0,0E0,0E0,0E0,0E0],"parents":[2147483647,0,0,1,1,2,2,4,4,5,5,6,6],"right_children":[2,4,6,-1,8,10,12,-1,-1,-1,-1,-1,-1],"split_conditions":[3.6E1,2.9E1,1.8E1,1.3396826E-2,7E1,6.6E1,1.8060606E1,1.5090551E-3,5.448125E-3,-1.6241647E-2,-9.232425E-3,-7.091465E-3,-1.0080337E-5],"split_indices":[2,2,5,0,1,3,5,0,0,0,0,0,0],"split_type":[0,0,0,0,0,0,0,0,0,0,0,0,0],"sum_hessian":[6.8E1,3.6E1,3.2E1,2.1E1,1.5E1,2.5E1,7E0,9E0,6E0,1.8E1,7E0,5E0,2E0],"tree_param":{"num_deleted":"0","num_feature":"6","num_nodes":"13","size_leaf_vector":"1"}},{"base_weights":[4.8732493E-2,1.0212098E0,-1.0681896E0,2.0189388E-1,1.3358735E0,-1.3230785E0,-3.2414836E-1,1.3608473E-3,4.628973E-3,1.1167246E-2,1.833788E-2,-1.4944153E-2,-7.7218567E-3,-8.426215E-3,-8.92024E-4],"categories":[],"categories_nodes":[],"categories_segments":[],"categories_sizes":[],"default_left":[0,0,0,0,0,0,0,0,0,0,0,0,0,0,0],"id":42,"left_children":[1,3,5,7,9,11,13,-1,-1,-1,-1,-1,-1,-1,-1],"loss_changes":[7.9295906E1,9.784843E0,6.01915E0,1.4312372E-1,1.0074501E0,1.2057419E0,1.1429677E0,0E0,0E0,0E0,0E0,0E0,0E0,0E0,0E0],"parents":[2147483647,0,0,1,1,2,2,3,3,4,4,5,5,6,6],"right_children":[2,4,6,8,10,12,14,-1,-1,-1,-1,-1,-1,-1,-1],"split_conditions":[3.6E1,1.175E3,1.8E1,2.2E1,7.9E1,2E1,6.4E1,1.3608473E-3,4.628973E-3,1.1167246E-2,1.833788E-2,-1.4944153E-2,-7.7218567E-3,-8.426215E-3,-8.92024E-4],"split_indices":[2,0,5,4,3,4,3,0,0,0,0,0,0,0,0],"split_type":[0,0,0,0,0,0,0,0,0,0,0,0,0,0,0],"sum_hessian":[7.1E1,3.8E1,3.3E1,1.1E1,2.7E1,2.4E1,9E0,1E1,1E0,2.1E1,6E0,1.7E1,7E0,2E0,7E0],"tree_param":{"num_deleted":"0","num_feature":"6","num_nodes":"15","size_leaf_vector":"1"}},{"base_weights":[8.255562E-2,-8.208335E-1,1.3445485E0,-1.2676451E0,-1.5465985E-1,1.1771362E0,1.946183E-2,-1.4349815E-2,-8.1071565E-3,-8.370037E-3,-1.705414E-4,1.4649014E-2,7.766861E-3],"categories":[],"categories_nodes":[],"categories_segments":[],"categories_sizes":[],"default_left":[0,0,0,0,0,0,0,0,0,0,0,0,0],"id":43,"left_children":[1,3,5,7,9,11,-1,-1,-1,-1,-1,-1,-1],"loss_changes":[8.204867E1,1.2305422E1,7.307091E-1,7.481613E-1,1.675825E0,1.8583565E0,0E0,0E0,0E0,0E0,0E0,0E0,0E0],"parents":[2147483647,0,0,1,1,2,2,3,3,4,4,5,5],"right_children":[2,4,6,8,10,12,-1,-1,-1,-1,-1,-1,-1],"split_conditions":[1.175E3,1.8E1,8E1,4.55E2,6.4E1,2.8E1,1.946183E-2,-1.4349815E-2,-8.1071565E-3,-8.370037E-3,-1.705414E-4,1.4649014E-2,7.766861E-3],"split_indices":[0,5,3,0,3,2,0,0,0,0,0,0,0],"split_type":[0,0,0,0,0,0,0,0,0,0,0,0,0],"sum_hessian":[7E1,4.1E1,2.9E1,2.4E1,1.7E1,2.5E1,4E0,1.6E1,8E0,2E0,1.5E1,1.3E1,1.2E1],"tree_param":{"num_deleted":"0","num_feature":"6","num_nodes":"13","size_leaf_vector":"1"}},{"base_weights":[4.395316E-2,1.0489045E0,-1.0251813E0,1.3446056E-2,3.0838344E-1,-1.2697383E0,-1.3279283E-1,1.4223943E-3,4.793083E-3,-1.430745E-2,-6.513289E-3,5.5889704E-4,-3.3544777E-3],"categories":[],"categories_nodes":[],"categories_segments":[],"categories_sizes":[],"default_left":[0,0,0,0,0,0,0,0,0,0,0,0,0],"id":44,"left_children":[1,3,5,-1,7,9,11,-1,-1,-1,-1,-1,-1],"loss_changes":[7.091315E1,7.030422E0,6.8150635E0,0E0,2.4420321E-1,1.5573158E0,3.2464767E-1,0E0,0E0,0E0,0E0,0E0,0E0],"parents":[2147483647,0,0,1,1,2,2,4,4,5,5,6,6],"right_children":[2,4,6,-1,8,10,12,-1,-1,-1,-1,-1,-1],"split_conditions":[3.6E1,2.9E1,1.8E1,1.3446056E-2,7E1,4.55E2,7E1,1.4223943E-3,4.793083E-3,-1.430745E-2,-6.513289E-3,5.5889704E-4,-3.3544777E-3],"split_indices":[2,2,5,0,1,0,3,0,0,0,0,0,0],"split_type":[0,0,0,0,0,0,0,0,0,0,0,0,0],"sum_hessian":[6.4E1,3.3E1,3.1E1,2.3E1,1E1,2.4E1,7E0,6E0,4E0,1.8E1,6E0,4E0,3E0],"tree_param":{"num_deleted":"0","num_feature":"6","num_nodes":"13","size_leaf_vector":"1"}},{"base_weights":[-1.5571258E-2,-1.106565E0,9.8493886E-1,-1.2825084E0,-3.9642847E-1,2.0317134E-1,1.2380033E0,-1.50412945E-2,-7.7750157E-3,-8.3179595E-3,-1.1267328E-3,1.23026E-3,4.6223975E-3,1.0622669E-2,1.6760353E-2],"categories":[],"categories_nodes":[],"categories_segments":[],"categories_sizes":[],"default_left":[0,0,0,0,0,0,0,0,0,0,0,0,0,0,0],"id":45,"left_children":[1,3,5,7,9,11,13,-1,-1,-1,-1,-1,-1,-1,-1],"loss_changes":[7.531532E1,3.6147232E0,6.870617E0,1.7404594E0,8.945812E-1,1.5076381E-1,2.9801178E-1,0E0,0E0,0E0,0E0,0E0,0E0,0E0,0E0],"parents":[2147483647,0,0,1,1,2,2,3,3,4,4,5,5,6,6],"right_children":[2,4,6,8,10,12,14,-1,-1,-1,-1,-1,-1,-1,-1],"split_conditions":[5E2,1.8E1,1.175E3,2E1,6.4E1,2.2E1,2.4E1,-1.50412945E-2,-7.7750157E-3,-8.3179595E-3,-1.1267328E-3,1.23026E-3,4.6223975E-3,1.0622669E-2,1.6760353E-2],"split_indices":[0,5,0,4,3,4,4,0,0,0,0,0,0,0,0],"split_type":[0,0,0,0,0,0,0,0,0,0,0,0,0,0,0],"sum_hessian":[6.7E1,3.2E1,3.5E1,2.5E1,7E0,9E0,2.6E1,1.6E1,9E0,2E0,5E0,8E0,1E0,2.1E1,5E0],"tree_param":{"num_deleted":"0","num_feature":"6","num_nodes":"15","size_leaf_vector":"1"}},{"base_weights":[6.904808E-2,-1.1539048E0,1.0456842E0,-1.3177271E0,-3.805783E-1,1.3438418E0,3.230612E-1,-1.4842136E-2,-9.029274E-3,-5.3364355E-3,1.3898214E-5,1.1706387E-2,1.9064482E-2,1.4039199E-3,5.8725355E-3],"categories":[],"categories_nodes":[],"categories_segments":[],"categories_sizes":[],"default_left":[0,0,0,0,0,0,0,0,0,0,0,0,0,0,0],"id":46,"left_children":[1,3,5,7,9,11,13,-1,-1,-1,-1,-1,-1,-1,-1],"loss_changes":[8.600759E1,3.5525208E0,8.184082E0,4.553833E-1,4.100039E-1,4.967041E-1,5.4493177E-1,0E0,0E0,0E0,0E0,0E0,0E0,0E0,0E0],"parents":[2147483647,0,0,1,1,2,2,3,3,4,4,5,5,6,6],"right_children":[2,4,6,8,10,12,14,-1,-1,-1,-1,-1,-1,-1,-1],"split_conditions":[5E2,1.8E1,2.9E1,2E1,1.8060606E1,8E1,7E1,-1.4842136E-2,-9.029274E-3,-5.3364355E-3,1.3898214E-5,1.1706387E-2,1.9064482E-2,1.4039199E-3,5.8725355E-3],"split_indices":[0,5,2,4,5,3,1,0,0,0,0,0,0,0,0],"split_type":[0,0,0,0,0,0,0,0,0,0,0,0,0,0,0],"sum_hessian":[7E1,3.1E1,3.9E1,2.5E1,6E0,2.7E1,1.2E1,1.6E1,9E0,4E0,2E0,2.3E1,4E0,8E0,4E0],"tree_param":{"num_deleted":"0","num_feature":"6","num_nodes":"15","size_leaf_vector":"1"}},{"base_weights":[-8.3324395E-2,-1.0898833E0,9.535091E-1,-1.460193E-2,-6.622113E-1,1.24066636E-1,1.2253948E0,-7.3885396E-3,-7.165591E-5,1.3914414E-3,-5.815506E-5,8.977904E-3,1.5091388E-2],"categories":[],"categories_nodes":[],"categories_segments":[],"categories_sizes":[],"default_left":[0,0,0,0,0,0,0,0,0,0,0,0,0],"id":47,"left_children":[1,3,5,-1,7,9,11,-1,-1,-1,-1,-1,-1],"loss_changes":[7.618086E1,4.8927727E0,7.966461E0,0E0,9.4859123E-1,2.039218E-2,1.1549149E0,0E0,0E0,0E0,0E0,0E0,0E0],"parents":[2147483647,0,0,1,1,2,2,4,4,5,5,6,6],"right_children":[2,4,6,-1,8,10,12,-1,-1,-1,-1,-1,-1],"split_conditions":[5E2,4.4E2,1.175E3,-1.460193E-2,1.8060606E1,1.15E3,2E1,-7.3885396E-3,-7.165591E-5,1.3914414E-3,-5.815506E-5,8.977904E-3,1.5091388E-2],"split_indices":[0,0,0,0,5,0,5,0,0,0,0,0,0],"split_type":[0,0,0,0,0,0,0,0,0,0,0,0,0],"sum_hessian":[7.1E1,3.6E1,3.5E1,1.8E1,1.8E1,9E0,2.6E1,1.6E1,2E0,8E0,1E0,1.4E1,1.2E1],"tree_param":{"num_deleted":"0","num_feature":"6","num_nodes":"13","size_leaf_vector":"1"}},{"base_weights":[-8.207573E-2,-1.1289625E0,8.538524E-1,-1.3675596E-2,-4.4343328E-1,2.5218636E-1,1.169247E0,-6.62963E-3,5.160212E-4,1.5966636E-3,7.2747325E-3,9.596503E-3,1.6380953E-2],"categories":[],"categories_nodes":[],"categories_segments":[],"categories_sizes":[],"default_left":[0,0,0,0,0,0,0,0,0,0,0,0,0],"id":48,"left_children":[1,3,5,-1,7,9,11,-1,-1,-1,-1,-1,-1],"loss_changes":[6.857091E1,4.791237E0,6.7263393E0,0E0,1.1209602E0,4.994768E-1,7.8645706E-1,0E0,0E0,0E0,0E0,0E0,0E0],"parents":[2147483647,0,0,1,1,2,2,4,4,5,5,6,6],"right_children":[2,4,6,-1,8,10,12,-1,-1,-1,-1,-1,-1],"split_conditions":[5E2,1.8E1,2.2E1,-1.3675596E-2,1.8060606E1,1.23E3,2.4E1,-6.62963E-3,5.160212E-4,1.5966636E-3,7.2747325E-3,9.596503E-3,1.6380953E-2],"split_indices":[0,5,4,0,5,0,4,0,0,0,0,0,0],"split_type":[0,0,0,0,0,0,0,0,0,0,0,0,0],"sum_hessian":[6.8E1,3.2E1,3.6E1,2.3E1,9E0,1.3E1,2.3E1,6E0,3E0,1.2E1,1E0,1.8E1,5E0],"tree_param":{"num_deleted":"0","num_feature":"6","num_nodes":"13","size_leaf_vector":"1"}},{"base_weights":[-1.8198619E-3,9.0810686E-1,-9.3629E-1,1.303913E-1,1.1812056E0,-1.1862684E0,-3.1664577E-1,1.4474734E-3,-6.584644E-5,1.0094229E-2,1.6428383E-2,-1.5323858E-2,-8.74171E-3,1.3770461E-3,-4.833964E-3],"categories":[],"categories_nodes":[],"categories_segments":[],"categories_sizes":[],"default_left":[0,0,0,0,0,0,0,0,0,0,0,0,0,0,0],"id":49,"left_children":[1,3,5,7,9,11,13,-1,-1,-1,-1,-1,-1,-1,-1],"loss_changes":[6.3772408E1,7.916914E0,5.355591E0,2.2583887E-2,5.6209564E-1,1.4690094E0,9.757247E-1,0E0,0E0,0E0,0E0,0E0,0E0,0E0,0E0],"parents":[2147483647,0,0,1,1,2,2,3,3,4,4,5,5,6,6],"right_children":[2,4,6,8,10,12,14,-1,-1,-1,-1,-1,-1,-1,-1],"split_conditions":[3.6E1,1.175E3,1.8E1,1.15E3,7.9E1,1.9E1,5.2E1,1.4474734E-3,-6.584644E-5,1.0094229E-2,1.6428383E-2,-1.5323858E-2,-8.74171E-3,1.3770461E-3,-4.833964E-3],"split_indices":[2,0,5,0,3,4,1,0,0,0,0,0,0,0,0],"split_type":[0,0,0,0,0,0,0,0,0,0,0,0,0,0,0],"sum_hessian":[7.3E1,3.7E1,3.6E1,1E1,2.7E1,2.5E1,1.1E1,9E0,1E0,2.2E1,5E0,1E1,1.5E1,3E0,8E0],"tree_param":{"num_deleted":"0","num_feature":"6","num_nodes":"15","size_leaf_vector":"1"}},{"base_weights":[1.0217673E-2,-1.1159173E0,9.752329E-1,-1.3631146E0,-3.368929E-1,1.8832223E-1,1.2483844E0,-1.633432E-2,-1.0379651E-2,-8.101246E-3,-1.1731935E-3,1.2348348E-3,4.507742E-3,1.0902049E-2,1.8528763E-2],"categories":[],"categories_nodes":[],"categories_segments":[],"categories_sizes":[],"default_left":[0,0,0,0,0,0,0,0,0,0,0,0,0,0,0],"id":50,"left_children":[1,3,5,7,9,11,13,-1,-1,-1,-1,-1,-1,-1,-1],"loss_changes":[8.476706E1,6.4733925E0,8.792625E0,6.7768097E-1,9.440485E-1,1.4854151E-1,9.44149E-1,0E0,0E0,0E0,0E0,0E0,0E0,0E0,0E0],"parents":[2147483647,0,0,1,1,2,2,3,3,4,4,5,5,6,6],"right_children":[2,4,6,8,10,12,14,-1,-1,-1,-1,-1,-1,-1,-1],"split_conditions":[5E2,1.8E1,1.175E3,6.5E1,6.4E1,2.2E1,8E1,-1.633432E-2,-1.0379651E-2,-8.101246E-3,-1.1731935E-3,1.2348348E-3,4.507742E-3,1.0902049E-2,1.8528763E-2],"split_indices":[0,5,0,3,3,4,3,0,0,0,0,0,0,0,0],"split_type":[0,0,0,0,0,0,0,0,0,0,0,0,0,0,0],"sum_hessian":[7.6E1,3.5E1,4.1E1,2.6E1,9E0,1.1E1,3E1,1.2E1,1.4E1,2E0,7E0,1E1,1E0,2.6E1,4E0],"tree_param":{"num_deleted":"0","num_feature":"6","num_nodes":"15","size_leaf_vector":"1"}},{"base_weights":[8.437871E-2,9.697079E-1,-9.707257E-1,1.893648E-1,1.256419E0,-1.2375383E0,-3.1173792E-1,1.3039183E-3,4.4852016E-3,1.1076835E-2,1.838053E-2,-1.6268058E-2,-9.357611E-3,-8.047237E-3,-1.326684E-3],"categories":[],"categories_nodes":[],"categories_segments":[],"categories_sizes":[],"default_left":[0,0,0,0,0,0,0,0,0,0,0,0,0,0,0],"id":51,"left_children":[1,3,5,7,9,11,13,-1,-1,-1,-1,-1,-1,-1,-1],"loss_changes":[7.56705E1,9.606331E0,6.1197815E0,1.4019775E-1,7.323227E-1,1.5319748E0,9.5258343E-1,0E0,0E0,0E0,0E0,0E0,0E0,0E0,0E0],"parents":[2147483647,0,0,1,1,2,2,3,3,4,4,5,5,6,6],"right_children":[2,4,6,8,10,12,14,-1,-1,-1,-1,-1,-1,-1,-1],"split_conditions":[3.6E1,1.175E3,1.8E1,2.2E1,8E1,1.6E1,6.4E1,1.3039183E-3,4.4852016E-3,1.1076835E-2,1.838053E-2,-1.6268058E-2,-9.357611E-3,-8.047237E-3,-1.326684E-3],"split_indices":[2,0,5,4,3,5,3,0,0,0,0,0,0,0,0],"split_type":[0,0,0,0,0,0,0,0,0,0,0,0,0,0,0],"sum_hessian":[7.9E1,4.3E1,3.6E1,1.2E1,3.1E1,2.5E1,1.1E1,1.1E1,1E0,2.7E1,4E0,9E0,1.6E1,2E0,9E0],"tree_param":{"num_deleted":"0","num_feature":"6","num_nodes":"15","size_leaf_vector":"1"}},{"base_weights":[5.8778655E-2,9.8321617E-1,-9.44328E-1,1.9444709E-1,1.2485003E0,-1.1852229E0,-2.8909215E-1,1.2463627E-3,4.4627762E-3,1.0835906E-2,1.823349E-2,-1.3341885E-2,-5.9028924E-3,-7.99359E-3,-8.6881843E-4],"categories":[],"categories_nodes":[],"categories_segments":[],"categories_sizes":[],"default_left":[0,0,0,0,0,0,0,0,0,0,0,0,0,0,0],"id":52,"left_children":[1,3,5,7,9,11,13,-1,-1,-1,-1,-1,-1,-1,-1],"loss_changes":[6.954938E1,7.9179077E0,5.3397064E0,1.3776311E-1,7.733803E-1,1.5166855E0,1.0655435E0,0E0,0E0,0E0,0E0,0E0,0E0,0E0,0E0],"parents":[2147483647,0,0,1,1,2,2,3,3,4,4,5,5,6,6],"right_children":[2,4,6,8,10,12,14,-1,-1,-1,-1,-1,-1,-1,-1],"split_conditions":[3.6E1,1.175E3,1.8E1,2.2E1,8E1,4.55E2,6.4E1,1.2463627E-3,4.4627762E-3,1.0835906E-2,1.823349E-2,-1.3341885E-2,-5.9028924E-3,-7.99359E-3,-8.6881843E-4],"split_indices":[2,0,5,4,3,0,3,0,0,0,0,0,0,0,0],"split_type":[0,0,0,0,0,0,0,0,0,0,0,0,0,0,0],"sum_hessian":[7.3E1,3.8E1,3.5E1,1E1,2.8E1,2.5E1,1E1,9E0,1E0,2.4E1,4E0,1.9E1,6E0,2E0,8E0],"tree_param":{"num_deleted":"0","num_feature":"6","num_nodes":"15","size_leaf_vector":"1"}},{"base_weights":[-1.9835694E-2,-1.2244365E0,6.9242465E-1,-1.3706442E-2,-5.086368E-1,1.2384291E0,1.4005412E-1,1.3662768E-3,-6.650152E-3,2.6249122E-3,1.2724027E-2,4.0976476E-4,4.8853834E-3],"categories":[],"categories_nodes":[],"categories_segments":[],"categories_sizes":[],"default_left":[0,0,0,0,0,0,0,0,0,0,0,0,0],"id":53,"left_children":[1,3,5,-1,7,9,11,-1,-1,-1,-1,-1,-1],"loss_changes":[6.00491E1,2.02388E0,1.3096811E1,0E0,6.9629204E-1,3.9543915E-1,7.7410233E-1,0E0,0E0,0E0,0E0,0E0,0E0],"parents":[2147483647,0,0,1,1,2,2,4,4,5,5,6,6],"right_children":[2,4,6,-1,8,10,12,-1,-1,-1,-1,-1,-1],"split_conditions":[1.8E1,4.55E2,2.9E1,-1.3706442E-2,4.6E2,7.1E1,1.15E3,1.3662768E-3,-6.650152E-3,2.6249122E-3,1.2724027E-2,4.0976476E-4,4.8853834E-3],"split_indices":[5,0,2,0,0,1,0,0,0,0,0,0,0],"split_type":[0,0,0,0,0,0,0,0,0,0,0,0,0],"sum_hessian":[6.8E1,2.5E1,4.3E1,2E1,5E0,2.1E1,2.2E1,1E0,4E0,1E0,2E1,1.8E1,4E0],"tree_param":{"num_deleted":"0","num_feature":"6","num_nodes":"13","size_leaf_vector":"1"}},{"base_weights":[-1.23974875E-1,-1.0322627E0,8.6344725E-1,-1.2319162E0,-3.3007565E-1,1.8428151E-1,1.1549089E0,-1.4412311E-2,-7.978412E-3,-7.943032E-3,-1.1473083E-3,1.1969418E-3,4.47371E-3,9.4665745E-3,1.7985832E-2],"categories":[],"categories_nodes":[],"categories_segments":[],"categories_sizes":[],"default_left":[0,0,0,0,0,0,0,0,0,0,0,0,0,0,0],"id":54,"left_children":[1,3,5,7,9,11,13,-1,-1,-1,-1,-1,-1,-1,-1],"loss_changes":[6.72592E1,5.0609474E0,6.9134007E0,1.5758743E0,9.085591E-1,1.5035924E-1,1.6485138E0,0E0,0E0,0E0,0E0,0E0,0E0,0E0,0E0],"parents":[2147483647,0,0,1,1,2,2,3,3,4,4,5,5,6,6],"right_children":[2,4,6,8,10,12,14,-1,-1,-1,-1,-1,-1,-1,-1],"split_conditions":[5E2,1.8E1,1.175E3,2E1,6.4E1,2.2E1,7.9E1,-1.4412311E-2,-7.978412E-3,-7.943032E-3,-1.1473083E-3,1.1969418E-3,4.47371E-3,9.4665745E-3,1.7985832E-2],"split_indices":[0,5,0,4,3,4,1,0,0,0,0,0,0,0,0],"split_type":[0,0,0,0,0,0,0,0,0,0,0,0,0,0,0],"sum_hessian":[7.3E1,3.8E1,3.5E1,2.9E1,9E0,1.1E1,2.4E1,1.8E1,1.1E1,2E0,7E0,1E1,1E0,2E1,4E0],"tree_param":{"num_deleted":"0","num_feature":"6","num_nodes":"15","size_leaf_vector":"1"}},{"base_weights":[-5.291536E-3,8.94939E-1,-9.053751E-1,1.2640357E-1,1.2280384E0,-1.1569538E0,-3.0580488E-1,1.3998308E-3,-1.14855764E-4,1.0371423E-2,1.7841943E-2,-1.3185289E-2,-6.487906E-3,1.3856292E-3,-4.6932334E-3],"categories":[],"categories_nodes":[],"categories_segments":[],"categories_sizes":[],"default_left":[0,0,0,0,0,0,0,0,0,0,0,0,0,0,0],"id":55,"left_children":[1,3,5,7,9,11,13,-1,-1,-1,-1,-1,-1,-1,-1],"loss_changes":[5.834033E1,9.060726E0,5.0764027E0,2.4077415E-2,8.0373764E-1,1.197216E0,9.3697906E-1,0E0,0E0,0E0,0E0,0E0,0E0,0E0,0E0],"parents":[2147483647,0,0,1,1,2,2,3,3,4,4,5,5,6,6],"right_children":[2,4,6,8,10,12,14,-1,-1,-1,-1,-1,-1,-1,-1],"split_conditions":[3.6E1,1.175E3,1.8E1,1.15E3,8E1,4.55E2,5.2E1,1.3998308E-3,-1.14855764E-4,1.0371423E-2,1.7841943E-2,-1.3185289E-2,-6.487906E-3,1.3856292E-3,-4.6932334E-3],"split_indices":[2,0,5,0,1,0,1,0,0,0,0,0,0,0,0],"split_type":[0,0,0,0,0,0,0,0,0,0,0,0,0,0,0],"sum_hessian":[7E1,3.5E1,3.5E1,1.1E1,2.4E1,2.4E1,1.1E1,1E1,1E0,2E1,4E0,1.7E1,7E0,3E0,8E0],"tree_param":{"num_deleted":"0","num_feature":"6","num_nodes":"15","size_leaf_vector":"1"}},{"base_weights":[-1.24972604E-1,9.0044004E-1,-1.056232E0,1.3354709E-3,1.0791525E0,-1.176193E0,1.3752364E-3,1.3265931E-2,7.899781E-3,-1.4059523E-2,-7.499144E-3],"categories":[],"categories_nodes":[],"categories_segments":[],"categories_sizes":[],"default_left":[0,0,0,0,0,0,0,0,0,0,0],"id":56,"left_children":[1,3,5,-1,7,9,-1,-1,-1,-1,-1],"loss_changes":[6.2066284E1,4.104534E0,5.030693E0,0E0,7.408581E-1,1.981842E0,0E0,0E0,0E0,0E0,0E0],"parents":[2147483647,0,0,1,1,2,2,4,4,5,5],"right_children":[2,4,6,-1,8,10,-1,-1,-1,-1,-1],"split_conditions":[3.6E1,7E1,1.8060606E1,1.3354709E-3,2.8E1,6.6E1,1.3752364E-3,1.3265931E-2,7.899781E-3,-1.4059523E-2,-7.499144E-3],"split_indices":[2,1,5,0,2,3,0,0,0,0,0],"split_type":[0,0,0,0,0,0,0,0,0,0,0],"sum_hessian":[6.3E1,3E1,3.3E1,6E0,2.4E1,3E1,3E0,1.1E1,1.3E1,1.8E1,1.2E1],"tree_param":{"num_deleted":"0","num_feature":"6","num_nodes":"11","size_leaf_vector":"1"}},{"base_weights":[-7.5811826E-2,8.168524E-1,-9.664271E-1,1.8816835E-1,1.0427291E0,-1.1631765E0,-3.188859E-1,1.1888838E-3,4.4048405E-3,8.622074E-3,1.5308538E-2,-1.5573362E-2,-8.576802E-3,-7.765064E-3,-1.0741747E-3],"categories":[],"categories_nodes":[],"categories_segments":[],"categories_sizes":[],"default_left":[0,0,0,0,0,0,0,0,0,0,0,0,0,0,0],"id":57,"left_children":[1,3,5,7,9,11,13,-1,-1,-1,-1,-1,-1,-1,-1],"loss_changes":[5.8825912E1,5.0579796E0,4.3430023E0,1.3991627E-1,1.059248E0,2.0359077E0,8.843125E-1,0E0,0E0,0E0,0E0,0E0,0E0,0E0,0E0],"parents":[2147483647,0,0,1,1,2,2,3,3,4,4,5,5,6,6],"right_children":[2,4,6,8,10,12,14,-1,-1,-1,-1,-1,-1,-1,-1],"split_conditions":[3.6E1,1.175E3,1.8E1,2.2E1,2.4E1,1.9E1,6.4E1,1.1888838E-3,4.4048405E-3,8.622074E-3,1.5308538E-2,-1.5573362E-2,-8.576802E-3,-7.765064E-3,-1.0741747E-3],"split_indices":[2,0,5,4,4,4,3,0,0,0,0,0,0,0,0],"split_type":[0,0,0,0,0,0,0,0,0,0,0,0,0,0,0],"sum_hessian":[7.2E1,3.6E1,3.6E1,1E1,2.6E1,2.7E1,9E0,9E0,1E0,2.1E1,5E0,1E1,1.7E1,2E0,7E0],"tree_param":{"num_deleted":"0","num_feature":"6","num_nodes":"15","size_leaf_vector":"1"}},{"base_weights":[-7.1150507E-3,9.2622834E-1,-9.669221E-1,2.1128137E-1,1.2323538E0,-1.206341E0,-3.3488628E-1,1.1781807E-3,4.523986E-3,4.5151827E-3,1.3183077E-2,-1.3979099E-2,-7.7919667E-3,-7.713299E-3,-1.5219551E-3],"categories":[],"categories_nodes":[],"categories_segments":[],"categories_sizes":[],"default_left":[0,0,0,0,0,0,0,0,0,0,0,0,0,0,0],"id":58,"left_children":[1,3,5,7,9,11,13,-1,-1,-1,-1,-1,-1,-1,-1],"loss_changes":[6.360366E1,7.6187134E0,4.8922615E0,2.1712667E-1,1.0826607E0,9.564438E-1,7.596834E-1,0E0,0E0,0E0,0E0,0E0,0E0,0E0,0E0],"parents":[2147483647,0,0,1,1,2,2,3,3,4,4,5,5,6,6],"right_children":[2,4,6,8,10,12,14,-1,-1,-1,-1,-1,-1,-1,-1],"split_conditions":[3.6E1,1.9E1,1.8E1,2.2E1,7.4E1,2E1,6.4E1,1.1781807E-3,4.523986E-3,4.5151827E-3,1.3183077E-2,-1.3979099E-2,-7.7919667E-3,-7.713299E-3,-1.5219551E-3],"split_indices":[2,5,5,4,3,4,3,0,0,0,0,0,0,0,0],"split_type":[0,0,0,0,0,0,0,0,0,0,0,0,0,0,0],"sum_hessian":[6.9E1,3.5E1,3.4E1,1.1E1,2.4E1,2.4E1,1E1,9E0,2E0,3E0,2.1E1,1.5E1,9E0,2E0,8E0],"tree_param":{"num_deleted":"0","num_feature":"6","num_nodes":"15","size_leaf_vector":"1"}},{"base_weights":[4.278534E-2,9.1553766E-1,-9.595713E-1,1.8541995E-1,1.1609086E0,-1.1539272E0,-2.9147965E-1,1.1675806E-3,4.3601943E-3,9.984924E-3,1.7408073E-2,-1.3059553E-2,-7.800867E-3,-7.6618767E-3,-4.6393395E-4],"categories":[],"categories_nodes":[],"categories_segments":[],"categories_sizes":[],"default_left":[0,0,0,0,0,0,0,0,0,0,0,0,0,0,0],"id":59,"left_children":[1,3,5,7,9,11,13,-1,-1,-1,-1,-1,-1,-1,-1],"loss_changes":[6.3864773E1,6.771576E0,4.078474E0,1.3836417E-1,9.9318314E-1,4.5893097E-1,1.0115536E0,0E0,0E0,0E0,0E0,0E0,0E0,0E0,0E0],"parents":[2147483647,0,0,1,1,2,2,3,3,4,4,5,5,6,6],"right_children":[2,4,6,8,10,12,14,-1,-1,-1,-1,-1,-1,-1,-1],"split_conditions":[3.6E1,1.175E3,1.8E1,2.2E1,8E1,4.4E2,6.4E1,1.1675806E-3,4.3601943E-3,9.984924E-3,1.7408073E-2,-1.3059553E-2,-7.800867E-3,-7.6618767E-3,-4.6393395E-4],"split_indices":[2,0,5,4,1,0,3,0,0,0,0,0,0,0,0],"split_type":[0,0,0,0,0,0,0,0,0,0,0,0,0,0,0],"sum_hessian":[7.1E1,3.8E1,3.3E1,1E1,2.8E1,2.5E1,8E0,9E0,1E0,2.4E1,4E0,1.6E1,9E0,2E0,6E0],"tree_param":{"num_deleted":"0","num_feature":"6","num_nodes":"15","size_leaf_vector":"1"}},{"base_weights":[-7.7669725E-2,8.489559E-1,-9.763983E-1,1.1625606E0,2.2881266E-1,-1.2382828E0,-3.49439E-1,2.3306177E-3,1.1942168E-2,1.3342428E-3,4.100804E-3,-1.49762435E-2,-8.836887E-3,1.3878678E-3,-5.2760164E-3],"categories":[],"categories_nodes":[],"categories_segments":[],"categories_sizes":[],"default_left":[0,0,0,0,0,0,0,0,0,0,0,0,0,0,0],"id":60,"left_children":[1,3,5,7,9,11,13,-1,-1,-1,-1,-1,-1,-1,-1],"loss_changes":[5.9123863E1,6.5407867E0,5.4781685E0,3.984337E-1,1.700663E-1,9.7558975E-1,1.1170276E0,0E0,0E0,0E0,0E0,0E0,0E0,0E0,0E0],"parents":[2147483647,0,0,1,1,2,2,3,3,4,4,5,5,6,6],"right_children":[2,4,6,8,10,12,14,-1,-1,-1,-1,-1,-1,-1,-1],"split_conditions":[3.6E1,2.9E1,1.7E1,7.1E1,1.15E3,6.5E1,5.2E1,2.3306177E-3,1.1942168E-2,1.3342428E-3,4.100804E-3,-1.49762435E-2,-8.836887E-3,1.3878678E-3,-5.2760164E-3],"split_indices":[2,2,5,1,0,3,1,0,0,0,0,0,0,0,0],"split_type":[0,0,0,0,0,0,0,0,0,0,0,0,0,0,0],"sum_hessian":[6.9E1,3.4E1,3.5E1,2.2E1,1.2E1,2.4E1,1.1E1,1E0,2.1E1,9E0,3E0,1.2E1,1.2E1,3E0,8E0],"tree_param":{"num_deleted":"0","num_feature":"6","num_nodes":"15","size_leaf_vector":"1"}},{"base_weights":[1.7594395E-2,9.2462116E-1,-9.9070185E-1,1.2110038E-2,3.665832E-1,-1.0876969E0,5.7183027E-2,1.6177911E-3,6.4682607E-3,-1.392211E-2,-7.1920063E-3,1.3920116E-3,-9.443569E-4],"categories":[],"categories_nodes":[],"categories_segments":[],"categories_sizes":[],"default_left":[0,0,0,0,0,0,0,0,0,0,0,0,0],"id":61,"left_children":[1,3,5,-1,7,9,11,-1,-1,-1,-1,-1,-1],"loss_changes":[6.950741E1,5.9485626E0,3.7212257E0,0E0,7.562804E-1,2.7017288E0,6.288749E-2,0E0,0E0,0E0,0E0,0E0,0E0],"parents":[2147483647,0,0,1,1,2,2,4,4,5,5,6,6],"right_children":[2,4,6,-1,8,10,12,-1,-1,-1,-1,-1,-1],"split_conditions":[3.6E1,2.9E1,1.8060606E1,1.2110038E-2,2.2E1,2E1,5.2E1,1.6177911E-3,6.4682607E-3,-1.392211E-2,-7.1920063E-3,1.3920116E-3,-9.443569E-4],"split_indices":[2,2,5,0,4,4,1,0,0,0,0,0,0],"split_type":[0,0,0,0,0,0,0,0,0,0,0,0,0],"sum_hessian":[7.4E1,3.9E1,3.5E1,2.5E1,1.4E1,3.2E1,3E0,9E0,5E0,1.6E1,1.6E1,2E0,1E0],"tree_param":{"num_deleted":"0","num_feature":"6","num_nodes":"13","size_leaf_vector":"1"}},{"base_weights":[-3.573227E-2,8.66912E-1,-1.0193523E0,1.2027396E0,2.5327295E-1,-1.2436999E0,-2.8290313E-1,7.358931E-3,1.4026648E-2,1.1277437E-3,4.8361546E-3,-1.5653562E-2,-1.00025255E-2,-7.527682E-3,-4.1117668E-4],"categories":[],"categories_nodes":[],"categories_segments":[],"categories_sizes":[],"default_left":[0,0,0,0,0,0,0,0,0,0,0,0,0,0,0],"id":62,"left_children":[1,3,5,7,9,11,13,-1,-1,-1,-1,-1,-1,-1,-1],"loss_changes":[6.1258102E1,7.114149E0,5.1004333E0,1.1144791E0,3.9853972E-1,3.9191055E-1,9.915069E-1,0E0,0E0,0E0,0E0,0E0,0E0,0E0,0E0],"parents":[2147483647,0,0,1,1,2,2,3,3,4,4,5,5,6,6],"right_children":[2,4,6,8,10,12,14,-1,-1,-1,-1,-1,-1,-1,-1],"split_conditions":[3.6E1,2.9E1,1.8E1,2.3E1,2.2E1,1.6E1,6.4E1,7.358931E-3,1.4026648E-2,1.1277437E-3,4.8361546E-3,-1.5653562E-2,-1.00025255E-2,-7.527682E-3,-4.1117668E-4],"split_indices":[2,2,5,4,4,5,3,0,0,0,0,0,0,0,0],"split_type":[0,0,0,0,0,0,0,0,0,0,0,0,0,0,0],"sum_hessian":[6.7E1,3.5E1,3.2E1,2.2E1,1.3E1,2.4E1,8E0,8E0,1.4E1,9E0,4E0,8E0,1.6E1,2E0,6E0],"tree_param":{"num_deleted":"0","num_feature":"6","num_nodes":"15","size_leaf_vector":"1"}},{"base_weights":[1.9312479E-2,8.1853116E-1,-8.773664E-1,1.7595227E-1,1.083624E0,-1.2887479E0,-5.0641435E-1,1.1421697E-3,4.2752028E-3,8.95097E-3,1.696418E-2,-1.3729832E-2,-5.4727076E-4,-6.9917957E-3,2.7773698E-4],"categories":[],"categories_nodes":[],"categories_segments":[],"categories_sizes":[],"default_left":[0,0,0,0,0,0,0,0,0,0,0,0,0,0,0],"id":63,"left_children":[1,3,5,7,9,11,13,-1,-1,-1,-1,-1,-1,-1,-1],"loss_changes":[5.0166485E1,6.112026E0,4.383251E0,1.3753745E-1,1.4852753E0,1.4840832E0,1.975904E0,0E0,0E0,0E0,0E0,0E0,0E0,0E0,0E0],"parents":[2147483647,0,0,1,1,2,2,3,3,4,4,5,5,6,6],"right_children":[2,4,6,8,10,12,14,-1,-1,-1,-1,-1,-1,-1,-1],"split_conditions":[3.6E1,1.175E3,6.5E1,2.2E1,8E1,6.2E1,1.8E1,1.1421697E-3,4.2752028E-3,8.95097E-3,1.696418E-2,-1.3729832E-2,-5.4727076E-4,-6.9917957E-3,2.7773698E-4],"split_indices":[2,0,3,4,1,1,5,0,0,0,0,0,0,0,0],"split_type":[0,0,0,0,0,0,0,0,0,0,0,0,0,0,0],"sum_hessian":[6.8E1,3.6E1,3.2E1,1.1E1,2.5E1,1.4E1,1.8E1,1E1,1E0,2.1E1,4E0,1.3E1,1E0,1.3E1,5E0],"tree_param":{"num_deleted":"0","num_feature":"6","num_nodes":"15","size_leaf_vector":"1"}},{"base_weights":[1.6700071E-1,8.428834E-1,-8.1762254E-1,1.7179856E-1,1.1055907E0,-1.3034564E0,-4.4830978E-1,1.15218E-3,4.253826E-3,9.520573E-3,1.6828468E-2,-1.4401229E-2,-6.7009255E-3,-7.195159E-3,-1.9362569E-4],"categories":[],"categories_nodes":[],"categories_segments":[],"categories_sizes":[],"default_left":[0,0,0,0,0,0,0,0,0,0,0,0,0,0,0],"id":64,"left_children":[1,3,5,7,9,11,13,-1,-1,-1,-1,-1,-1,-1,-1],"loss_changes":[4.7273445E1,7.214615E0,4.6189613E0,1.3751137E-1,1.0566826E0,7.370186E-2,2.0800645E0,0E0,0E0,0E0,0E0,0E0,0E0,0E0,0E0],"parents":[2147483647,0,0,1,1,2,2,3,3,4,4,5,5,6,6],"right_children":[2,4,6,8,10,12,14,-1,-1,-1,-1,-1,-1,-1,-1],"split_conditions":[3.6E1,1.175E3,6.4E1,2.2E1,8E1,2.1E1,1.8E1,1.15218E-3,4.253826E-3,9.520573E-3,1.6828468E-2,-1.4401229E-2,-6.7009255E-3,-7.195159E-3,-1.9362569E-4],"split_indices":[2,0,3,4,3,4,5,0,0,0,0,0,0,0,0],"split_type":[0,0,0,0,0,0,0,0,0,0,0,0,0,0,0],"sum_hessian":[6.9E1,4.1E1,2.8E1,1.2E1,2.9E1,1.1E1,1.7E1,1.1E1,1E0,2.5E1,4E0,8E0,3E0,1E1,7E0],"tree_param":{"num_deleted":"0","num_feature":"6","num_nodes":"15","size_leaf_vector":"1"}},{"base_weights":[-2.2284515E-2,8.8407266E-1,-9.0354323E-1,1.7667736E-1,1.1493524E0,-1.3707249E0,-5.227046E-1,1.0969391E-3,4.232559E-3,1.2240309E-2,5.908966E-3,-1.4824101E-2,-6.6506695E-3,-7.956581E-3,-1.1559458E-3],"categories":[],"categories_nodes":[],"categories_segments":[],"categories_sizes":[],"default_left":[0,0,0,0,0,0,0,0,0,0,0,0,0,0,0],"id":65,"left_children":[1,3,5,7,9,11,13,-1,-1,-1,-1,-1,-1,-1,-1],"loss_changes":[5.8307728E1,6.552614E0,5.8665886E0,1.3525489E-1,3.6104202E-1,2.7508354E-1,2.352713E0,0E0,0E0,0E0,0E0,0E0,0E0,0E0,0E0],"parents":[2147483647,0,0,1,1,2,2,3,3,4,4,5,5,6,6],"right_children":[2,4,6,8,10,12,14,-1,-1,-1,-1,-1,-1,-1,-1],"split_conditions":[3.6E1,1.175E3,6.5E1,2.2E1,2.9E1,2.1E1,1.8E1,1.0969391E-3,4.232559E-3,1.2240309E-2,5.908966E-3,-1.4824101E-2,-6.6506695E-3,-7.956581E-3,-1.1559458E-3],"split_indices":[2,0,3,4,2,4,5,0,0,0,0,0,0,0,0],"split_type":[0,0,0,0,0,0,0,0,0,0,0,0,0,0,0],"sum_hessian":[7.1E1,3.5E1,3.6E1,1E1,2.5E1,1.5E1,2.1E1,9E0,1E0,2.1E1,4E0,1.2E1,3E0,1.2E1,9E0],"tree_param":{"num_deleted":"0","num_feature":"6","num_nodes":"15","size_leaf_vector":"1"}},{"base_weights":[-1.1952098E-2,-1.0734702E0,7.1327865E-1,-1.3488184E0,-7.82658E-1,7.871761E-2,1.0393949E0,-1.4545798E-2,-3.9840696E-4,-9.850717E-3,-5.157727E-3,1.2019749E-3,-2.510004E-3,8.593783E-3,1.6595917E-2],"categories":[],"categories_nodes":[],"categories_segments":[],"categories_sizes":[],"default_left":[0,0,0,0,0,0,0,0,0,0,0,0,0,0,0],"id":66,"left_children":[1,3,5,7,9,11,13,-1,-1,-1,-1,-1,-1,-1,-1],"loss_changes":[5.311519E1,1.1864243E0,8.402746E0,1.7417603E0,3.5626698E-1,2.3531961E-1,1.5882149E0,0E0,0E0,0E0,0E0,0E0,0E0,0E0,0E0],"parents":[2147483647,0,0,1,1,2,2,3,3,4,4,5,5,6,6],"right_children":[2,4,6,8,10,12,14,-1,-1,-1,-1,-1,-1,-1,-1],"split_conditions":[1.8E1,6.3E1,1.15E3,6.2E1,4.4E2,3.8E1,8E1,-1.4545798E-2,-3.9840696E-4,-9.850717E-3,-5.157727E-3,1.2019749E-3,-2.510004E-3,8.593783E-3,1.6595917E-2],"split_indices":[5,3,0,1,0,2,3,0,0,0,0,0,0,0,0],"split_type":[0,0,0,0,0,0,0,0,0,0,0,0,0,0,0],"sum_hessian":[6.7E1,2.7E1,4E1,1.2E1,1.5E1,1.4E1,2.6E1,1.1E1,1E0,7E0,8E0,1.3E1,1E0,2.2E1,4E0],"tree_param":{"num_deleted":"0","num_feature":"6","num_nodes":"15","size_leaf_vector":"1"}},{"base_weights":[2.6436465E-2,8.0542296E-1,-8.831155E-1,1.7087524E-1,1.0250729E0,-1.0660446E0,-3.008955E-1,1.0936962E-3,4.2371843E-3,8.720625E-3,1.646315E-2,-1.25963995E-2,-6.699385E-3,-7.252054E-3,-1.0416734E-3],"categories":[],"categories_nodes":[],"categories_segments":[],"categories_sizes":[],"default_left":[0,0,0,0,0,0,0,0,0,0,0,0,0,0,0],"id":67,"left_children":[1,3,5,7,9,11,13,-1,-1,-1,-1,-1,-1,-1,-1],"loss_changes":[5.5267994E1,5.678732E0,3.5134106E0,1.4027336E-1,1.5110626E0,1.226593E0,7.591943E-1,0E0,0E0,0E0,0E0,0E0,0E0,0E0,0E0],"parents":[2147483647,0,0,1,1,2,2,3,3,4,4,5,5,6,6],"right_children":[2,4,6,8,10,12,14,-1,-1,-1,-1,-1,-1,-1,-1],"split_conditions":[3.6E1,1.175E3,1.8E1,2.2E1,8E1,2E1,6.4E1,1.0936962E-3,4.2371843E-3,8.720625E-3,1.646315E-2,-1.25963995E-2,-6.699385E-3,-7.252054E-3,-1.0416734E-3],"split_indices":[2,0,5,4,3,4,3,0,0,0,0,0,0,0,0],"split_type":[0,0,0,0,0,0,0,0,0,0,0,0,0,0,0],"sum_hessian":[7.6E1,4.1E1,3.5E1,1.1E1,3E1,2.6E1,9E0,1E1,1E0,2.6E1,4E0,1.6E1,1E1,2E0,7E0],"tree_param":{"num_deleted":"0","num_feature":"6","num_nodes":"15","size_leaf_vector":"1"}},{"base_weights":[-1.0687302E-1,7.438604E-1,-9.3100625E-1,9.908011E-1,2.497453E-1,-1.0210745E0,4.4808626E-2,7.7532004E-3,1.37256915E-2,1.4984998E-3,4.3704724E-3,-1.2920491E-2,-6.5241097E-3,1.2070909E-3,-9.1446395E-4],"categories":[],"categories_nodes":[],"categories_segments":[],"categories_sizes":[],"default_left":[0,0,0,0,0,0,0,0,0,0,0,0,0,0,0],"id":68,"left_children":[1,3,5,7,9,11,13,-1,-1,-1,-1,-1,-1,-1,-1],"loss_changes":[4.9770775E1,4.0231514E0,3.2097912E0,8.278885E-1,1.7774612E-1,2.453701E0,5.2405696E-2,0E0,0E0,0E0,0E0,0E0,0E0,0E0,0E0],"parents":[2147483647,0,0,1,1,2,2,3,3,4,4,5,5,6,6],"right_children":[2,4,6,8,10,12,14,-1,-1,-1,-1,-1,-1,-1,-1],"split_conditions":[3.6E1,2.9E1,1.8060606E1,2.4E1,2.2E1,2E1,5.2E1,7.7532004E-3,1.37256915E-2,1.4984998E-3,4.3704724E-3,-1.2920491E-2,-6.5241097E-3,1.2070909E-3,-9.1446395E-4],"split_indices":[2,2,5,4,4,4,1,0,0,0,0,0,0,0,0],"split_type":[0,0,0,0,0,0,0,0,0,0,0,0,0,0,0],"sum_hessian":[6.9E1,3.4E1,3.5E1,2.2E1,1.2E1,3.2E1,3E0,1.6E1,6E0,9E0,3E0,1.7E1,1.5E1,2E0,1E0],"tree_param":{"num_deleted":"0","num_feature":"6","num_nodes":"15","size_leaf_vector":"1"}},{"base_weights":[-1.0618478E-1,7.4454117E-1,-8.451206E-1,1.0638254E0,2.1243341E-1,-1.034462E0,-1.9258432E-1,1.1070735E-2,9.943008E-4,1.2328596E-3,3.4824163E-3,-1.1932472E-2,-4.486467E-3,1.3678836E-3,-3.5328525E-3],"categories":[],"categories_nodes":[],"categories_segments":[],"categories_sizes":[],"default_left":[0,0,0,0,0,0,0,0,0,0,0,0,0,0,0],"id":69,"left_children":[1,3,5,7,9,11,13,-1,-1,-1,-1,-1,-1,-1,-1],"loss_changes":[4.5890724E1,5.5503902E0,4.619316E0,7.658024E-1,1.2656409E-1,2.2552147E0,5.776303E-1,0E0,0E0,0E0,0E0,0E0,0E0,0E0,0E0],"parents":[2147483647,0,0,1,1,2,2,3,3,4,4,5,5,6,6],"right_children":[2,4,6,8,10,12,14,-1,-1,-1,-1,-1,-1,-1,-1],"split_conditions":[3.6E1,2.9E1,1.8E1,1.3E3,7E1,4.55E2,5.2E1,1.1070735E-2,9.943008E-4,1.2328596E-3,3.4824163E-3,-1.1932472E-2,-4.486467E-3,1.3678836E-3,-3.5328525E-3],"split_indices":[2,2,5,0,1,0,1,0,0,0,0,0,0,0,0],"split_type":[0,0,0,0,0,0,0,0,0,0,0,0,0,0,0],"sum_hessian":[7.1E1,3.3E1,3.8E1,2E1,1.3E1,2.9E1,9E0,1.9E1,1E0,9E0,4E0,2.2E1,7E0,3E0,6E0],"tree_param":{"num_deleted":"0","num_feature":"6","num_nodes":"15","size_leaf_vector":"1"}},{"base_weights":[-1.1472023E-1,-9.275323E-1,7.508296E-1,-1.0783442E0,-2.837491E-1,1.0132443E-1,1.0288177E0,-1.3022406E-2,-6.712956E-3,-6.5628146E-3,-1.367757E-3,1.1737661E-3,-2.9598712E-4,3.9132345E-3,1.142431E-2],"categories":[],"categories_nodes":[],"categories_segments":[],"categories_sizes":[],"default_left":[0,0,0,0,0,0,0,0,0,0,0,0,0,0,0],"id":70,"left_children":[1,3,5,7,9,11,13,-1,-1,-1,-1,-1,-1,-1,-1],"loss_changes":[4.7832886E1,3.0921764E0,5.854059E0,1.677639E0,3.4825546E-1,2.6591823E-2,1.2187824E0,0E0,0E0,0E0,0E0,0E0,0E0,0E0,0E0],"parents":[2147483647,0,0,1,1,2,2,3,3,4,4,5,5,6,6],"right_children":[2,4,6,8,10,12,14,-1,-1,-1,-1,-1,-1,-1,-1],"split_conditions":[5E2,1.8E1,1.175E3,2E1,6.4E1,1.15E3,7.4E1,-1.3022406E-2,-6.712956E-3,-6.5628146E-3,-1.367757E-3,1.1737661E-3,-2.9598712E-4,3.9132345E-3,1.142431E-2],"split_indices":[0,5,0,4,3,0,3,0,0,0,0,0,0,0,0],"split_type":[0,0,0,0,0,0,0,0,0,0,0,0,0,0,0],"sum_hessian":[6.6E1,3.4E1,3.2E1,2.7E1,7E0,1E1,2.2E1,1.6E1,1.1E1,1E0,6E0,9E0,1E0,4E0,1.8E1],"tree_param":{"num_deleted":"0","num_feature":"6","num_nodes":"15","size_leaf_vector":"1"}},{"base_weights":[1.4408804E-2,7.9492617E-1,-8.583579E-1,1.7305985E-1,9.8195153E-1,-1.2728128E0,-5.0459874E-1,9.96029E-4,4.170861E-3,1.2425812E-2,6.925286E-3,-1.38061475E-2,-6.312041E-3,-6.816803E-3,-7.8350067E-4],"categories":[],"categories_nodes":[],"categories_segments":[],"categories_sizes":[],"default_left":[0,0,0,0,0,0,0,0,0,0,0,0,0,0,0],"id":71,"left_children":[1,3,5,7,9,11,13,-1,-1,-1,-1,-1,-1,-1,-1],"loss_changes":[4.904821E1,4.249645E0,4.3427258E0,1.3771123E-1,1.327013E0,1.6604996E-1,1.4562063E0,0E0,0E0,0E0,0E0,0E0,0E0,0E0,0E0],"parents":[2147483647,0,0,1,1,2,2,3,3,4,4,5,5,6,6],"right_children":[2,4,6,8,10,12,14,-1,-1,-1,-1,-1,-1,-1,-1],"split_conditions":[3.6E1,1.175E3,6.5E1,2.2E1,2.8E1,2.1E1,1.8E1,9.96029E-4,4.170861E-3,1.2425812E-2,6.925286E-3,-1.38061475E-2,-6.312041E-3,-6.816803E-3,-7.8350067E-4],"split_indices":[2,0,3,4,2,4,5,0,0,0,0,0,0,0,0],"split_type":[0,0,0,0,0,0,0,0,0,0,0,0,0,0,0],"sum_hessian":[7E1,3.7E1,3.3E1,9E0,2.8E1,1.4E1,1.9E1,8E0,1E0,1.3E1,1.5E1,1.1E1,3E0,1.3E1,6E0],"tree_param":{"num_deleted":"0","num_feature":"6","num_nodes":"15","size_leaf_vector":"1"}},{"base_weights":[9.031114E-2,-9.0169805E-1,8.0726004E-1,-1.2202925E-2,-5.229903E-1,1.0920225E0,2.5985438E-1,-8.070282E-3,-3.0026846E-3,9.263315E-3,1.602658E-2,1.1560192E-3,4.5696604E-3],"categories":[],"categories_nodes":[],"categories_segments":[],"categories_sizes":[],"default_left":[0,0,0,0,0,0,0,0,0,0,0,0,0],"id":72,"left_children":[1,3,5,-1,7,9,11,-1,-1,-1,-1,-1,-1],"loss_changes":[4.9090855E1,2.8607712E0,5.951456E0,0E0,7.065964E-1,7.1520615E-1,3.7368155E-1,0E0,0E0,0E0,0E0,0E0,0E0],"parents":[2147483647,0,0,1,1,2,2,4,4,5,5,6,6],"right_children":[2,4,6,-1,8,10,12,-1,-1,-1,-1,-1,-1],"split_conditions":[4.8E2,4.4E2,2.9E1,-1.2202925E-2,6.4E1,8E1,7E1,-8.070282E-3,-3.0026846E-3,9.263315E-3,1.602658E-2,1.1560192E-3,4.5696604E-3],"split_indices":[0,0,2,0,3,3,1,0,0,0,0,0,0],"split_type":[0,0,0,0,0,0,0,0,0,0,0,0,0],"sum_hessian":[6.7E1,2.8E1,3.9E1,1.4E1,1.4E1,2.5E1,1.4E1,5E0,9E0,2.1E1,4E0,9E0,5E0],"tree_param":{"num_deleted":"0","num_feature":"6","num_nodes":"13","size_leaf_vector":"1"}},{"base_weights":[8.438753E-3,8.0980426E-1,-7.931678E-1,1.198533E-3,1.0440236E0,-1.0362223E0,-1.6866511E-1,8.725195E-3,1.5898367E-2,-1.2086608E-2,-6.5669855E-3,1.4025354E-3,-3.0204128E-3],"categories":[],"categories_nodes":[],"categories_segments":[],"categories_sizes":[],"default_left":[0,0,0,0,0,0,0,0,0,0,0,0,0],"id":73,"left_children":[1,3,5,-1,7,9,11,-1,-1,-1,-1,-1,-1],"loss_changes":[4.4966522E1,5.5308666E0,5.1378117E0,0E0,1.0466766E0,8.4238625E-1,4.9558863E-1,0E0,0E0,0E0,0E0,0E0,0E0],"parents":[2147483647,0,0,1,1,2,2,4,4,5,5,6,6],"right_children":[2,4,6,-1,8,10,12,-1,-1,-1,-1,-1,-1],"split_conditions":[3.6E1,1.15E3,1.8E1,1.198533E-3,8E1,2E1,5.2E1,8.725195E-3,1.5898367E-2,-1.2086608E-2,-6.5669855E-3,1.4025354E-3,-3.0204128E-3],"split_indices":[2,0,5,0,3,4,1,0,0,0,0,0,0],"split_type":[0,0,0,0,0,0,0,0,0,0,0,0,0],"sum_hessian":[6.8E1,3.4E1,3.4E1,9E0,2.5E1,2.4E1,1E1,2.1E1,4E0,1.5E1,9E0,3E0,7E0],"tree_param":{"num_deleted":"0","num_feature":"6","num_nodes":"13","size_leaf_vector":"1"}},{"base_weights":[8.509803E-2,8.696482E-1,-7.807438E-1,1.1798773E-3,1.10546E0,-1.0396514E-2,-6.110912E-2,7.948511E-3,1.4918882E-2,9.877634E-4,-2.8566003E-3],"categories":[],"categories_nodes":[],"categories_segments":[],"categories_sizes":[],"default_left":[0,0,0,0,0,0,0,0,0,0,0],"id":74,"left_children":[1,3,5,-1,7,-1,9,-1,-1,-1,-1],"loss_changes":[4.279535E1,5.718834E0,5.526037E0,0E0,1.8148727E0,0E0,3.5133827E-1,0E0,0E0,0E0,0E0],"parents":[2147483647,0,0,1,1,2,2,4,4,6,6],"right_children":[2,4,6,-1,8,-1,10,-1,-1,-1,-1],"split_conditions":[3.6E1,7E1,1.8E1,1.1798773E-3,7.8E1,-1.0396514E-2,7E1,7.948511E-3,1.4918882E-2,9.877634E-4,-2.8566003E-3],"split_indices":[2,1,5,0,3,0,3,0,0,0,0],"split_type":[0,0,0,0,0,0,0,0,0,0,0],"sum_hessian":[6.1E1,3.2E1,2.9E1,8E0,2.4E1,2.1E1,8E0,1.5E1,9E0,5E0,3E0],"tree_param":{"num_deleted":"0","num_feature":"6","num_nodes":"11","size_leaf_vector":"1"}},{"base_weights":[-5.407983E-2,7.387874E-1,-8.049005E-1,1.66292E-1,9.1686475E-1,-1.1436696E0,-4.6006665E-1,9.407064E-4,4.0814206E-3,7.1030045E-3,1.2740226E-2,-7.150347E-3,-1.3904009E-2,-9.319112E-3,-2.0920138E-3],"categories":[],"categories_nodes":[],"categories_segments":[],"categories_sizes":[],"default_left":[0,0,0,0,0,0,0,0,0,0,0,0,0,0,0],"id":75,"left_children":[1,3,5,7,9,11,13,-1,-1,-1,-1,-1,-1,-1,-1],"loss_changes":[4.5242233E1,3.619627E0,4.0297775E0,1.362732E-1,1.1607895E0,1.0152111E0,2.2908E0,0E0,0E0,0E0,0E0,0E0,0E0,0E0,0E0],"parents":[2147483647,0,0,1,1,2,2,3,3,4,4,5,5,6,6],"right_children":[2,4,6,8,10,12,14,-1,-1,-1,-1,-1,-1,-1,-1],"split_conditions":[3.6E1,1.175E3,4.4E2,2.2E1,7.8E1,3.9E1,6.4E1,9.407064E-4,4.0814206E-3,7.1030045E-3,1.2740226E-2,-7.150347E-3,-1.3904009E-2,-9.319112E-3,-2.0920138E-3],"split_indices":[2,0,0,4,1,2,3,0,0,0,0,0,0,0,0],"split_type":[0,0,0,0,0,0,0,0,0,0,0,0,0,0,0],"sum_hessian":[7.4E1,3.6E1,3.8E1,9E0,2.7E1,1.8E1,2E1,8E0,1E0,1.9E1,8E0,8E0,1E1,6E0,1.4E1],"tree_param":{"num_deleted":"0","num_feature":"6","num_nodes":"15","size_leaf_vector":"1"}},{"base_weights":[1.5913032E-2,7.2479534E-1,-8.8907176E-1,9.82533E-1,2.3118837E-1,-1.0945282E0,-3.892518E-1,1.1364074E-2,6.9737146E-3,1.3557035E-3,4.363408E-3,-1.158785E-2,-3.4414434E-3,-4.965689E-3,2.6677767E-4],"categories":[],"categories_nodes":[],"categories_segments":[],"categories_sizes":[],"default_left":[0,0,0,0,0,0,0,0,0,0,0,0,0,0,0],"id":76,"left_children":[1,3,5,7,9,11,13,-1,-1,-1,-1,-1,-1,-1,-1],"loss_changes":[4.23437E1,4.480028E0,2.5519981E0,2.6059914E-1,2.1547288E-1,5.655575E-1,4.5961094E-1,0E0,0E0,0E0,0E0,0E0,0E0,0E0,0E0],"parents":[2147483647,0,0,1,1,2,2,3,3,4,4,5,5,6,6],"right_children":[2,4,6,8,10,12,14,-1,-1,-1,-1,-1,-1,-1,-1],"split_conditions":[3.6E1,2.9E1,1.7E1,2.8E1,2.2E1,4E1,1.8060606E1,1.1364074E-2,6.9737146E-3,1.3557035E-3,4.363408E-3,-1.158785E-2,-3.4414434E-3,-4.965689E-3,2.6677767E-4],"split_indices":[2,2,5,2,4,2,5,0,0,0,0,0,0,0,0],"split_type":[0,0,0,0,0,0,0,0,0,0,0,0,0,0,0],"sum_hessian":[6.4E1,3.6E1,2.8E1,2.3E1,1.3E1,1.9E1,9E0,1.3E1,1E1,1E1,3E0,1.7E1,2E0,7E0,2E0],"tree_param":{"num_deleted":"0","num_feature":"6","num_nodes":"15","size_leaf_vector":"1"}},{"base_weights":[-1.3778146E-3,8.093869E-1,-8.340178E-1,2.565574E-1,1.0546714E0,-1.047923E0,-2.3315829E-1,7.6649855E-3,9.415912E-4,8.553328E-3,1.3962665E-2,-1.2961371E-2,-7.6294243E-3,-6.8632667E-3,-5.6195684E-4],"categories":[],"categories_nodes":[],"categories_segments":[],"categories_sizes":[],"default_left":[0,0,0,0,0,0,0,0,0,0,0,0,0,0,0],"id":77,"left_children":[1,3,5,7,9,11,13,-1,-1,-1,-1,-1,-1,-1,-1],"loss_changes":[5.0630604E1,4.8822365E0,4.511162E0,1.0044036E0,5.76149E-1,9.2100143E-1,8.435638E-1,0E0,0E0,0E0,0E0,0E0,0E0,0E0,0E0],"parents":[2147483647,0,0,1,1,2,2,3,3,4,4,5,5,6,6],"right_children":[2,4,6,8,10,12,14,-1,-1,-1,-1,-1,-1,-1,-1],"split_conditions":[3.6E1,2.2E1,1.8E1,2.8E1,7.8E1,6.3E1,6.4E1,7.6649855E-3,9.415912E-4,8.553328E-3,1.3962665E-2,-1.2961371E-2,-7.6294243E-3,-6.8632667E-3,-5.6195684E-4],"split_indices":[2,4,5,2,1,3,3,0,0,0,0,0,0,0,0],"split_type":[0,0,0,0,0,0,0,0,0,0,0,0,0,0,0],"sum_hessian":[7.3E1,3.7E1,3.6E1,1.2E1,2.5E1,2.6E1,1E1,2E0,1E1,1.8E1,7E0,1.2E1,1.4E1,2E0,8E0],"tree_param":{"num_deleted":"0","num_feature":"6","num_nodes":"15","size_leaf_vector":"1"}},{"base_weights":[-7.797683E-2,7.104379E-1,-8.4163755E-1,1.4531377E-1,1.0120822E0,-1.0364848E0,-1.6358036E-1,6.192358E-4,5.7299803E-3,8.680193E-3,1.443361E-2,-1.1978234E-2,-6.4242687E-3,-3.034446E-3,2.1729628E-3],"categories":[],"categories_nodes":[],"categories_segments":[],"categories_sizes":[],"default_left":[0,0,0,0,0,0,0,0,0,0,0,0,0,0,0],"id":78,"left_children":[1,3,5,7,9,11,13,-1,-1,-1,-1,-1,-1,-1,-1],"loss_changes":[4.1539463E1,5.6487923E0,4.454567E0,4.2815867E-1,1.14025116E-1,9.4706154E-1,5.4537654E-1,0E0,0E0,0E0,0E0,0E0,0E0,0E0,0E0],"parents":[2147483647,0,0,1,1,2,2,3,3,4,4,5,5,6,6],"right_children":[2,4,6,8,10,12,14,-1,-1,-1,-1,-1,-1,-1,-1],"split_conditions":[3.6E1,2.2E1,1.8E1,1.23E3,8E1,2E1,4.6E2,6.192358E-4,5.7299803E-3,8.680193E-3,1.443361E-2,-1.1978234E-2,-6.4242687E-3,-3.034446E-3,2.1729628E-3],"split_indices":[2,4,5,0,3,4,0,0,0,0,0,0,0,0,0],"split_type":[0,0,0,0,0,0,0,0,0,0,0,0,0,0,0],"sum_hessian":[6.7E1,3.3E1,3.4E1,1.2E1,2.1E1,2.6E1,8E0,1.1E1,1E0,1.8E1,3E0,1.7E1,9E0,6E0,2E0],"tree_param":{"num_deleted":"0","num_feature":"6","num_nodes":"15","size_leaf_vector":"1"}},{"base_weights":[-5.305614E-2,7.331782E-1,-7.9761034E-1,1.043211E0,2.0891602E-1,-1.1153196E0,-4.7217765E-1,1.3462569E-2,8.570621E-3,1.3191073E-3,3.8770293E-3,-7.690032E-3,-1.3501041E-2,-7.8411745E-3,-3.2568914E-3],"categories":[],"categories_nodes":[],"categories_segments":[],"categories_sizes":[],"default_left":[0,0,0,0,0,0,0,0,0,0,0,0,0,0,0],"id":79,"left_children":[1,3,5,7,9,11,13,-1,-1,-1,-1,-1,-1,-1,-1],"loss_changes":[4.448935E1,5.7959785E0,3.5056973E0,1.4364052E-1,1.5537095E-1,5.066509E-1,7.042289E-1,0E0,0E0,0E0,0E0,0E0,0E0,0E0,0E0],"parents":[2147483647,0,0,1,1,2,2,3,3,4,4,5,5,6,6],"right_children":[2,4,6,8,10,12,14,-1,-1,-1,-1,-1,-1,-1,-1],"split_conditions":[3.6E1,2.9E1,4.4E2,1.245E3,2.2E1,3.9E1,6.4E1,1.3462569E-2,8.570621E-3,1.3191073E-3,3.8770293E-3,-7.690032E-3,-1.3501041E-2,-7.8411745E-3,-3.2568914E-3],"split_indices":[2,2,0,0,4,2,3,0,0,0,0,0,0,0,0],"split_type":[0,0,0,0,0,0,0,0,0,0,0,0,0,0,0],"sum_hessian":[7.4E1,3.6E1,3.8E1,2.2E1,1.4E1,1.8E1,2E1,6E0,1.6E1,1.1E1,3E0,9E0,9E0,5E0,1.5E1],"tree_param":{"num_deleted":"0","num_feature":"6","num_nodes":"15","size_leaf_vector":"1"}},{"base_weights":[-5.461604E-2,-8.111039E-1,6.823754E-1,-1.0677711E0,-3.498338E-1,1.5156148E-1,8.8070524E-1,-1.22113405E-2,-6.4674392E-3,-4.7207526E-3,7.378864E-4,8.804474E-4,3.9336444E-3,1.0324834E-2,6.4950525E-3],"categories":[],"categories_nodes":[],"categories_segments":[],"categories_sizes":[],"default_left":[0,0,0,0,0,0,0,0,0,0,0,0,0,0,0],"id":80,"left_children":[1,3,5,7,9,11,13,-1,-1,-1,-1,-1,-1,-1,-1],"loss_changes":[3.9580227E1,3.7702084E0,3.6564636E0,6.3077736E-1,7.598131E-1,1.3431022E-1,2.4176598E-1,0E0,0E0,0E0,0E0,0E0,0E0,0E0,0E0],"parents":[2147483647,0,0,1,1,2,2,3,3,4,4,5,5,6,6],"right_children":[2,4,6,8,10,12,14,-1,-1,-1,-1,-1,-1,-1,-1],"split_conditions":[5E2,1.7E1,1.175E3,2E1,1.8060606E1,2.2E1,2.8E1,-1.22113405E-2,-6.4674392E-3,-4.7207526E-3,7.378864E-4,8.804474E-4,3.9336444E-3,1.0324834E-2,6.4950525E-3],"split_indices":[0,5,0,4,5,4,2,0,0,0,0,0,0,0,0],"split_type":[0,0,0,0,0,0,0,0,0,0,0,0,0,0,0],"sum_hessian":[6.9E1,3.4E1,3.5E1,2.1E1,1.3E1,1E1,2.5E1,1.4E1,7E0,1E1,3E0,9E0,1E0,1.3E1,1.2E1],"tree_param":{"num_deleted":"0","num_feature":"6","num_nodes":"15","size_leaf_vector":"1"}},{"base_weights":[-1.3250704E-1,6.8313795E-1,-7.4598235E-1,9.158349E-2,1.0039138E0,-9.2177945E-1,-2.4432437E-1,1.5273017E-3,-1.4276664E-3,7.818724E-3,1.513663E-2,-1.0378643E-2,-4.728131E-3,1.4545106E-3,-3.9041075E-3],"categories":[],"categories_nodes":[],"categories_segments":[],"categories_sizes":[],"default_left":[0,0,0,0,0,0,0,0,0,0,0,0,0,0,0],"id":81,"left_children":[1,3,5,7,9,11,13,-1,-1,-1,-1,-1,-1,-1,-1],"loss_changes":[3.603645E1,5.7905054E0,3.3905792E0,1.9376159E-1,1.0802155E0,1.0728283E0,7.4007624E-1,0E0,0E0,0E0,0E0,0E0,0E0,0E0,0E0],"parents":[2147483647,0,0,1,1,2,2,3,3,4,4,5,5,6,6],"right_children":[2,4,6,8,10,12,14,-1,-1,-1,-1,-1,-1,-1,-1],"split_conditions":[3.6E1,2.2E1,1.8E1,7.3E1,7.9E1,4.55E2,5.2E1,1.5273017E-3,-1.4276664E-3,7.818724E-3,1.513663E-2,-1.0378643E-2,-4.728131E-3,1.4545106E-3,-3.9041075E-3],"split_indices":[2,4,5,1,3,0,1,0,0,0,0,0,0,0,0],"split_type":[0,0,0,0,0,0,0,0,0,0,0,0,0,0,0],"sum_hessian":[7E1,3E1,4E1,1.1E1,1.9E1,2.9E1,1.1E1,9E0,2E0,1.5E1,4E0,2.2E1,7E0,3E0,8E0],"tree_param":{"num_deleted":"0","num_feature":"6","num_nodes":"15","size_leaf_vector":"1"}},{"base_weights":[-6.166088E-2,-9.257686E-1,6.6763145E-1,-1.1616266E0,-4.916973E-1,1.4879876E-1,8.476146E-1,-5.3064036E-3,-1.2417628E-2,-6.7415377E-3,-1.6647243E-3,8.6181064E-4,3.8748789E-3,6.82994E-3,1.2439057E-2],"categories":[],"categories_nodes":[],"categories_segments":[],"categories_sizes":[],"default_left":[0,0,0,0,0,0,0,0,0,0,0,0,0,0,0],"id":82,"left_children":[1,3,5,7,9,11,13,-1,-1,-1,-1,-1,-1,-1,-1],"loss_changes":[4.4100986E1,2.7049656E0,3.4223576E0,3.523693E-1,6.591842E-1,1.3101366E-1,9.770756E-1,0E0,0E0,0E0,0E0,0E0,0E0,0E0,0E0],"parents":[2147483647,0,0,1,1,2,2,3,3,4,4,5,5,6,6],"right_children":[2,4,6,8,10,12,14,-1,-1,-1,-1,-1,-1,-1,-1],"split_conditions":[5E2,6.6E1,1.175E3,3.7E1,1.8E1,2.2E1,2.4E1,-5.3064036E-3,-1.2417628E-2,-6.7415377E-3,-1.6647243E-3,8.6181064E-4,3.8748789E-3,6.82994E-3,1.2439057E-2],"split_indices":[0,3,0,2,5,4,4,0,0,0,0,0,0,0,0],"split_type":[0,0,0,0,0,0,0,0,0,0,0,0,0,0,0],"sum_hessian":[6.8E1,3.1E1,3.7E1,1.9E1,1.2E1,1E1,2.7E1,3E0,1.6E1,7E0,5E0,9E0,1E0,2.1E1,6E0],"tree_param":{"num_deleted":"0","num_feature":"6","num_nodes":"15","size_leaf_vector":"1"}},{"base_weights":[6.441747E-2,6.8235534E-1,-6.436378E-1,2.2037584E-1,9.5072806E-1,-8.225321E-1,-1.1414862E-1,7.414433E-3,9.297739E-4,7.7667558E-3,1.4916026E-2,-9.390883E-3,-4.4289455E-3,-2.253294E-3,2.20383E-3],"categories":[],"categories_nodes":[],"categories_segments":[],"categories_sizes":[],"default_left":[0,0,0,0,0,0,0,0,0,0,0,0,0,0,0],"id":83,"left_children":[1,3,5,7,9,11,13,-1,-1,-1,-1,-1,-1,-1,-1],"loss_changes":[3.2816715E1,4.74979E0,3.2214012E0,9.9319357E-1,1.1950226E0,7.3456E-1,4.2159364E-1,0E0,0E0,0E0,0E0,0E0,0E0,0E0,0E0],"parents":[2147483647,0,0,1,1,2,2,3,3,4,4,5,5,6,6],"right_children":[2,4,6,8,10,12,14,-1,-1,-1,-1,-1,-1,-1,-1],"split_conditions":[3.6E1,2.2E1,1.8E1,2.8E1,8E1,4.55E2,4.6E2,7.414433E-3,9.297739E-4,7.7667558E-3,1.4916026E-2,-9.390883E-3,-4.4289455E-3,-2.253294E-3,2.20383E-3],"split_indices":[2,4,5,2,3,0,0,0,0,0,0,0,0,0,0],"split_type":[0,0,0,0,0,0,0,0,0,0,0,0,0,0,0],"sum_hessian":[7.3E1,3.9E1,3.4E1,1.5E1,2.4E1,2.5E1,9E0,2E0,1.3E1,2E1,4E0,1.8E1,7E0,7E0,2E0],"tree_param":{"num_deleted":"0","num_feature":"6","num_nodes":"15","size_leaf_vector":"1"}},{"base_weights":[-1.541432E-2,6.6536266E-1,-7.903155E-1,1.5652634E-1,8.7051815E-1,-1.0244838E0,-2.3660517E-1,9.2120166E-4,3.4050688E-3,1.1098658E-2,6.066816E-3,-1.15533555E-2,-6.020068E-3,1.5092945E-3,-3.825533E-3],"categories":[],"categories_nodes":[],"categories_segments":[],"categories_sizes":[],"default_left":[0,0,0,0,0,0,0,0,0,0,0,0,0,0,0],"id":84,"left_children":[1,3,5,7,9,11,13,-1,-1,-1,-1,-1,-1,-1,-1],"loss_changes":[4.0618496E1,4.143753E0,4.425413E0,1.2267575E-1,1.157978E0,6.8652534E-1,7.36458E-1,0E0,0E0,0E0,0E0,0E0,0E0,0E0,0E0],"parents":[2147483647,0,0,1,1,2,2,3,3,4,4,5,5,6,6],"right_children":[2,4,6,8,10,12,14,-1,-1,-1,-1,-1,-1,-1,-1],"split_conditions":[3.6E1,1.9E1,1.8E1,2.2E1,2.8E1,2E1,5.2E1,9.2120166E-4,3.4050688E-3,1.1098658E-2,6.066816E-3,-1.15533555E-2,-6.020068E-3,1.5092945E-3,-3.825533E-3],"split_indices":[2,5,5,4,2,4,1,0,0,0,0,0,0,0,0],"split_type":[0,0,0,0,0,0,0,0,0,0,0,0,0,0,0],"sum_hessian":[7.5E1,4E1,3.5E1,1.2E1,2.8E1,2.4E1,1.1E1,1E1,2E0,1.3E1,1.5E1,1.7E1,7E0,3E0,8E0],"tree_param":{"num_deleted":"0","num_feature":"6","num_nodes":"15","size_leaf_vector":"1"}},{"base_weights":[-5.6075647E-2,6.7576694E-1,-7.0728457E-1,1.499691E-1,8.978543E-1,-8.0669373E-1,9.027252E-2,8.897304E-4,3.7996483E-3,1.1534369E-2,6.5116296E-3,-8.75169E-3,-9.145522E-4,1.4979719E-3,-7.3913095E-4],"categories":[],"categories_nodes":[],"categories_segments":[],"categories_sizes":[],"default_left":[0,0,0,0,0,0,0,0,0,0,0,0,0,0,0],"id":85,"left_children":[1,3,5,7,9,11,13,-1,-1,-1,-1,-1,-1,-1,-1],"loss_changes":[3.336215E1,3.7188606E0,3.0063457E0,1.2051052E-1,6.990757E-1,1.5361767E0,5.9937462E-2,0E0,0E0,0E0,0E0,0E0,0E0,0E0,0E0],"parents":[2147483647,0,0,1,1,2,2,3,3,4,4,5,5,6,6],"right_children":[2,4,6,8,10,12,14,-1,-1,-1,-1,-1,-1,-1,-1],"split_conditions":[3.6E1,1.175E3,1.8060606E1,2.2E1,2.8E1,2.1131313E1,5.2E1,8.897304E-4,3.7996483E-3,1.1534369E-2,6.5116296E-3,-8.75169E-3,-9.145522E-4,1.4979719E-3,-7.3913095E-4],"split_indices":[2,0,5,4,2,4,1,0,0,0,0,0,0,0,0],"split_type":[0,0,0,0,0,0,0,0,0,0,0,0,0,0,0],"sum_hessian":[6.8E1,3.2E1,3.6E1,1E1,2.2E1,3.2E1,4E0,9E0,1E0,9E0,1.3E1,2.9E1,3E0,3E0,1E0],"tree_param":{"num_deleted":"0","num_feature":"6","num_nodes":"15","size_leaf_vector":"1"}},{"base_weights":[-2.4952585E-2,7.2487354E-1,-7.741389E-1,1.002692E0,2.1351801E-1,-8.754007E-1,8.952141E-2,8.437746E-3,1.46960635E-2,1.2523199E-3,3.6504364E-3,-1.1193925E-2,-5.8277557E-3,1.4867353E-3,-7.3543546E-4],"categories":[],"categories_nodes":[],"categories_segments":[],"categories_sizes":[],"default_left":[0,0,0,0,0,0,0,0,0,0,0,0,0,0,0],"id":86,"left_children":[1,3,5,7,9,11,13,-1,-1,-1,-1,-1,-1,-1,-1],"loss_changes":[4.3816635E1,5.326399E0,3.4891415E0,6.150055E-1,1.5494871E-1,1.8465786E0,5.9162173E-2,0E0,0E0,0E0,0E0,0E0,0E0,0E0,0E0],"parents":[2147483647,0,0,1,1,2,2,3,3,4,4,5,5,6,6],"right_children":[2,4,6,8,10,12,14,-1,-1,-1,-1,-1,-1,-1,-1],"split_conditions":[3.6E1,2.9E1,1.8060606E1,8E1,2.2E1,2E1,5.2E1,8.437746E-3,1.46960635E-2,1.2523199E-3,3.6504364E-3,-1.1193925E-2,-5.8277557E-3,1.4867353E-3,-7.3543546E-4],"split_indices":[2,2,5,3,4,4,1,0,0,0,0,0,0,0,0],"split_type":[0,0,0,0,0,0,0,0,0,0,0,0,0,0,0],"sum_hessian":[7.6E1,3.8E1,3.8E1,2.4E1,1.4E1,3.4E1,4E0,2E1,4E0,1E1,4E0,1.7E1,1.7E1,3E0,1E0],"tree_param":{"num_deleted":"0","num_feature":"6","num_nodes":"15","size_leaf_vector":"1"}},{"base_weights":[-1.3318238E-2,-7.4831796E-1,7.031768E-1,-1.144306E0,-5.215425E-1,1.6489403E-1,9.363064E-1,-1.2417144E-2,-4.057056E-3,-6.036353E-3,8.0876827E-4,1.0182705E-3,2.8133797E-3,1.1621855E-2,6.7812405E-3],"categories":[],"categories_nodes":[],"categories_segments":[],"categories_sizes":[],"default_left":[0,0,0,0,0,0,0,0,0,0,0,0,0,0,0],"id":87,"left_children":[1,3,5,7,9,11,13,-1,-1,-1,-1,-1,-1,-1,-1],"loss_changes":[4.05496E1,2.815607E0,4.739704E0,4.3153E-1,1.3346319E0,6.682119E-2,7.8647995E-1,0E0,0E0,0E0,0E0,0E0,0E0,0E0,0E0],"parents":[2147483647,0,0,1,1,2,2,3,3,4,4,5,5,6,6],"right_children":[2,4,6,8,10,12,14,-1,-1,-1,-1,-1,-1,-1,-1],"split_conditions":[5E2,1.6E1,7.4E1,6.6E1,1.8060606E1,1.15E3,2.8E1,-1.2417144E-2,-4.057056E-3,-6.036353E-3,8.0876827E-4,1.0182705E-3,2.8133797E-3,1.1621855E-2,6.7812405E-3],"split_indices":[0,5,3,3,5,0,2,0,0,0,0,0,0,0,0],"split_type":[0,0,0,0,0,0,0,0,0,0,0,0,0,0,0],"sum_hessian":[7.5E1,3.7E1,3.8E1,1.2E1,2.5E1,1.2E1,2.6E1,1E1,2E0,2.2E1,3E0,9E0,3E0,1.2E1,1.4E1],"tree_param":{"num_deleted":"0","num_feature":"6","num_nodes":"15","size_leaf_vector":"1"}},{"base_weights":[8.611798E-3,-7.016933E-1,5.233677E-1,-8.958019E-1,-1.708073E-1,8.2316065E-1,1.4869338E-1,-9.705659E-3,-1.2369617E-3,1.6242432E-3,-3.6449383E-3,9.57072E-3,5.6675975E-3,3.4662313E-4,3.8998364E-3],"categories":[],"categories_nodes":[],"categories_segments":[],"categories_sizes":[],"default_left":[0,0,0,0,0,0,0,0,0,0,0,0,0,0,0],"id":88,"left_children":[1,3,5,7,9,11,13,-1,-1,-1,-1,-1,-1,-1,-1],"loss_changes":[2.523034E1,2.8354282E0,4.37059E0,1.0921841E0,6.40085E-1,2.1294117E-1,5.0925946E-1,0E0,0E0,0E0,0E0,0E0,0E0,0E0,0E0],"parents":[2147483647,0,0,1,1,2,2,3,3,4,4,5,5,6,6],"right_children":[2,4,6,8,10,12,14,-1,-1,-1,-1,-1,-1,-1,-1],"split_conditions":[4.75E2,1.8E1,2.9E1,4.55E2,2E1,2.8E1,2.2E1,-9.705659E-3,-1.2369617E-3,1.6242432E-3,-3.6449383E-3,9.57072E-3,5.6675975E-3,3.4662313E-4,3.8998364E-3],"split_indices":[0,5,2,0,4,2,4,0,0,0,0,0,0,0,0],"split_type":[0,0,0,0,0,0,0,0,0,0,0,0,0,0,0],"sum_hessian":[6.7E1,2.8E1,3.9E1,2E1,8E0,2.1E1,1.8E1,1.8E1,2E0,3E0,5E0,1.2E1,9E0,1.3E1,5E0],"tree_param":{"num_deleted":"0","num_feature":"6","num_nodes":"15","size_leaf_vector":"1"}},{"base_weights":[-6.014814E-2,6.267907E-1,-7.083295E-1,1.8279696E-1,8.808417E-1,-8.8222003E-1,-6.9312416E-2,1.0668096E-3,2.9846954E-3,1.07766315E-2,5.860508E-3,-1.039373E-2,-5.30572E-3,1.4600086E-3,-2.0130253E-3],"categories":[],"categories_nodes":[],"categories_segments":[],"categories_sizes":[],"default_left":[0,0,0,0,0,0,0,0,0,0,0,0,0,0,0],"id":89,"left_children":[1,3,5,7,9,11,13,-1,-1,-1,-1,-1,-1,-1,-1],"loss_changes":[3.2057503E1,3.7868795E0,4.050255E0,9.14225E-2,6.449013E-1,1.0511513E0,2.8516337E-1,0E0,0E0,0E0,0E0,0E0,0E0,0E0,0E0],"parents":[2147483647,0,0,1,1,2,2,3,3,4,4,5,5,6,6],"right_children":[2,4,6,8,10,12,14,-1,-1,-1,-1,-1,-1,-1,-1],"split_conditions":[3.6E1,7.4E1,1.8E1,1.15E3,2.8E1,2E1,5.2E1,1.0668096E-3,2.9846954E-3,1.07766315E-2,5.860508E-3,-1.039373E-2,-5.30572E-3,1.4600086E-3,-2.0130253E-3],"split_indices":[2,3,5,0,2,4,1,0,0,0,0,0,0,0,0],"split_type":[0,0,0,0,0,0,0,0,0,0,0,0,0,0,0],"sum_hessian":[7E1,3.4E1,3.6E1,1.3E1,2.1E1,2.8E1,8E0,9E0,4E0,1.1E1,1E1,1.8E1,1E1,3E0,5E0],"tree_param":{"num_deleted":"0","num_feature":"6","num_nodes":"15","size_leaf_vector":"1"}},{"base_weights":[-8.918807E-2,-7.5077987E-1,6.352511E-1,-4.6962255E-1,-1.0728751E0,1.441838E-1,8.742309E-1,-5.4337615E-3,1.5402443E-3,-1.2463959E-2,-4.4185007E-3,7.7482796E-4,3.1845917E-3,6.676151E-3,1.4432018E-2],"categories":[],"categories_nodes":[],"categories_segments":[],"categories_sizes":[],"default_left":[0,0,0,0,0,0,0,0,0,0,0,0,0,0,0],"id":90,"left_children":[1,3,5,7,9,11,13,-1,-1,-1,-1,-1,-1,-1,-1],"loss_changes":[3.306818E1,2.7562943E0,3.7466726E0,1.049614E0,1.2012157E0,1.1481701E-1,1.6227798E0,0E0,0E0,0E0,0E0,0E0,0E0,0E0,0E0],"parents":[2147483647,0,0,1,1,2,2,3,3,4,4,5,5,6,6],"right_children":[2,4,6,8,10,12,14,-1,-1,-1,-1,-1,-1,-1,-1],"split_conditions":[5E2,3.9E1,1.9E1,1.8060606E1,6.6E1,2.2E1,8E1,-5.4337615E-3,1.5402443E-3,-1.2463959E-2,-4.4185007E-3,7.7482796E-4,3.1845917E-3,6.676151E-3,1.4432018E-2],"split_indices":[0,2,5,5,3,4,1,0,0,0,0,0,0,0,0],"split_type":[0,0,0,0,0,0,0,0,0,0,0,0,0,0,0],"sum_hessian":[6.7E1,3.5E1,3.2E1,2E1,1.5E1,1.1E1,2.1E1,1.8E1,2E0,1.1E1,4E0,9E0,2E0,1.7E1,4E0],"tree_param":{"num_deleted":"0","num_feature":"6","num_nodes":"15","size_leaf_vector":"1"}},{"base_weights":[-8.4365174E-2,5.688244E-1,-7.352113E-1,1.4040089E-1,7.5171477E-1,-9.322299E-1,-2.026936E-1,8.6550624E-4,3.6637688E-3,6.1991364E-3,1.065766E-2,-1.0889718E-2,-5.1516485E-3,-6.398325E-3,-3.4459113E-4],"categories":[],"categories_nodes":[],"categories_segments":[],"categories_sizes":[],"default_left":[0,0,0,0,0,0,0,0,0,0,0,0,0,0,0],"id":91,"left_children":[1,3,5,7,9,11,13,-1,-1,-1,-1,-1,-1,-1,-1],"loss_changes":[3.0602146E1,2.7152195E0,3.5880165E0,1.14316255E-1,3.7412548E-1,1.1386604E0,7.869122E-1,0E0,0E0,0E0,0E0,0E0,0E0,0E0,0E0],"parents":[2147483647,0,0,1,1,2,2,3,3,4,4,5,5,6,6],"right_children":[2,4,6,8,10,12,14,-1,-1,-1,-1,-1,-1,-1,-1],"split_conditions":[3.6E1,1.175E3,1.8E1,2.2E1,2.4E1,6.6E1,6.4E1,8.6550624E-4,3.6637688E-3,6.1991364E-3,1.065766E-2,-1.0889718E-2,-5.1516485E-3,-6.398325E-3,-3.4459113E-4],"split_indices":[2,0,5,4,4,3,3,0,0,0,0,0,0,0,0],"split_type":[0,0,0,0,0,0,0,0,0,0,0,0,0,0,0],"sum_hessian":[7E1,3.5E1,3.5E1,1.1E1,2.4E1,2.5E1,1E1,1E1,1E0,1.9E1,5E0,1.7E1,8E0,2E0,8E0],"tree_param":{"num_deleted":"0","num_feature":"6","num_nodes":"15","size_leaf_vector":"1"}},{"base_weights":[9.4027795E-2,7.0765305E-1,-7.0077986E-1,9.534345E-1,2.3445491E-1,-1.1007229E0,-4.8713398E-1,8.033475E-3,1.4231304E-2,8.352327E-4,4.4693183E-3,-1.2323224E-2,-3.8288306E-3,-5.4197395E-3,4.0843646E-4],"categories":[],"categories_nodes":[],"categories_segments":[],"categories_sizes":[],"default_left":[0,0,0,0,0,0,0,0,0,0,0,0,0,0,0],"id":92,"left_children":[1,3,5,7,9,11,13,-1,-1,-1,-1,-1,-1,-1,-1],"loss_changes":[3.4635895E1,4.4285965E0,2.1126318E0,6.896095E-1,4.4371313E-1,4.728384E-1,6.591301E-1,0E0,0E0,0E0,0E0,0E0,0E0,0E0,0E0],"parents":[2147483647,0,0,1,1,2,2,3,3,4,4,5,5,6,6],"right_children":[2,4,6,8,10,12,14,-1,-1,-1,-1,-1,-1,-1,-1],"split_conditions":[3.6E1,2.9E1,1.6E1,8E1,1.175E3,6.6E1,1.8060606E1,8.033475E-3,1.4231304E-2,8.352327E-4,4.4693183E-3,-1.2323224E-2,-3.8288306E-3,-5.4197395E-3,4.0843646E-4],"split_indices":[2,2,5,3,0,3,5,0,0,0,0,0,0,0,0],"split_type":[0,0,0,0,0,0,0,0,0,0,0,0,0,0,0],"sum_hessian":[6.9E1,3.9E1,3E1,2.5E1,1.4E1,9E0,2.1E1,2.1E1,4E0,9E0,5E0,7E0,2E0,1.9E1,2E0],"tree_param":{"num_deleted":"0","num_feature":"6","num_nodes":"15","size_leaf_vector":"1"}},{"base_weights":[1.5452927E-2,6.635198E-1,-7.843446E-1,1.5238483E-1,